<?xml version="1.0"?>
<MethodSetup Method="BDT::BDT_VBF0HighPt">
  <GeneralInfo>
    <Info name="TMVA Release" value="4.2.1 [262657]"/>
    <Info name="ROOT Release" value="6.10/09 [395785]"/>
    <Info name="Creator" value="ajafari"/>
    <Info name="Date" value="Fri Nov 30 14:54:58 2018"/>
    <Info name="Host" value="Linux cmsbuild49.cern.ch 2.6.32-696.10.2.el6.x86_64 #1 SMP Thu Sep 14 16:35:02 CEST 2017 x86_64 x86_64 x86_64 GNU/Linux"/>
    <Info name="Dir" value="/afs/cern.ch/work/a/ajafari/Vjj/CMSSW_9_4_2/src/TopLJets2015/TopAnalysis/macro"/>
    <Info name="Training events" value="53276"/>
    <Info name="TrainingTime" value="1.74260027e+02"/>
    <Info name="AnalysisType" value="Classification"/>
  </GeneralInfo>
  <Options>
    <Option name="V" modified="Yes">False</Option>
    <Option name="VerbosityLevel" modified="No">Default</Option>
    <Option name="VarTransform" modified="No">None</Option>
    <Option name="H" modified="Yes">False</Option>
    <Option name="CreateMVAPdfs" modified="Yes">True</Option>
    <Option name="IgnoreNegWeightsInTraining" modified="No">False</Option>
    <Option name="NTrees" modified="No">100</Option>
    <Option name="MaxDepth" modified="No">3</Option>
    <Option name="MinNodeSize" modified="No">5%</Option>
    <Option name="nCuts" modified="Yes">0</Option>
    <Option name="BoostType" modified="Yes">AdaBoost</Option>
    <Option name="AdaBoostR2Loss" modified="No">quadratic</Option>
    <Option name="UseBaggedBoost" modified="No">False</Option>
    <Option name="Shrinkage" modified="No">1.000000e+00</Option>
    <Option name="AdaBoostBeta" modified="No">6.000000e-01</Option>
    <Option name="UseRandomisedTrees" modified="No">False</Option>
    <Option name="UseNvars" modified="No">4</Option>
    <Option name="UsePoissonNvars" modified="No">True</Option>
    <Option name="BaggedSampleFraction" modified="No">6.000000e-01</Option>
    <Option name="UseYesNoLeaf" modified="No">True</Option>
    <Option name="NegWeightTreatment" modified="Yes">inverseboostnegweights</Option>
    <Option name="Css" modified="No">1.000000e+00</Option>
    <Option name="Cts_sb" modified="No">1.000000e+00</Option>
    <Option name="Ctb_ss" modified="No">1.000000e+00</Option>
    <Option name="Cbb" modified="No">1.000000e+00</Option>
    <Option name="NodePurityLimit" modified="No">5.000000e-01</Option>
    <Option name="SeparationType" modified="Yes">giniindex</Option>
    <Option name="RegressionLossFunctionBDTG" modified="No">huber</Option>
    <Option name="HuberQuantile" modified="No">7.000000e-01</Option>
    <Option name="DoBoostMonitor" modified="No">False</Option>
    <Option name="UseFisherCuts" modified="No">False</Option>
    <Option name="MinLinCorrForFisher" modified="No">8.000000e-01</Option>
    <Option name="UseExclusiveVars" modified="No">False</Option>
    <Option name="DoPreselection" modified="No">False</Option>
    <Option name="SigToBkgFraction" modified="No">1.000000e+00</Option>
    <Option name="PruneMethod" modified="No">nopruning</Option>
    <Option name="PruneStrength" modified="No">0.000000e+00</Option>
    <Option name="PruningValFraction" modified="No">5.000000e-01</Option>
    <Option name="SkipNormalization" modified="No">False</Option>
    <Option name="nEventsMin" modified="No">0</Option>
    <Option name="UseBaggedGrad" modified="No">False</Option>
    <Option name="GradBaggingFraction" modified="No">6.000000e-01</Option>
    <Option name="UseNTrainEvents" modified="No">0</Option>
    <Option name="NNodesMax" modified="No">0</Option>
  </Options>
  <Variables NVar="17">
    <Variable VarIndex="0" Expression="mjj" Label="mjj" Title="mjj" Unit="" Internal="mjj" Type="F" Min="5.00007111e+02" Max="8.96610840e+03"/>
    <Variable VarIndex="1" Expression="jjpt" Label="jjpt" Title="jjpt" Unit="" Internal="jjpt" Type="F" Min="4.85194397e+00" Max="1.51205420e+03"/>
    <Variable VarIndex="2" Expression="detajj" Label="detajj" Title="detajj" Unit="" Internal="detajj" Type="F" Min="1.06394291e-04" Max="7.99623585e+00"/>
    <Variable VarIndex="3" Expression="dphijj" Label="dphijj" Title="dphijj" Unit="" Internal="dphijj" Type="F" Min="-3.14156651e+00" Max="3.14158058e+00"/>
    <Variable VarIndex="4" Expression="ystar" Label="ystar" Title="ystar" Unit="" Internal="ystar" Type="F" Min="-4.43096018e+00" Max="4.62640905e+00"/>
    <Variable VarIndex="5" Expression="relbpt" Label="relbpt" Title="relbpt" Unit="" Internal="relbpt" Type="F" Min="2.96877027e-01" Max="1.54000034e+01"/>
    <Variable VarIndex="6" Expression="dphibjj" Label="dphibjj" Title="dphibjj" Unit="" Internal="dphibjj" Type="F" Min="-3.14158630e+00" Max="3.14158273e+00"/>
    <Variable VarIndex="7" Expression="balance" Label="balance" Title="balance" Unit="" Internal="balance" Type="F" Min="2.68257380e-01" Max="9.98726013e+02"/>
    <Variable VarIndex="8" Expression="j_c2_00[0]" Label="j_c2_00[0]" Title="jet_c2_001" Unit="" Internal="j_c2_00_0_" Type="F" Min="-1.00000000e+00" Max="6.46148145e-01"/>
    <Variable VarIndex="9" Expression="j_c2_00[1]" Label="j_c2_00[1]" Title="jet_c2_002" Unit="" Internal="j_c2_00_1_" Type="F" Min="-1.00000000e+00" Max="6.48723066e-01"/>
    <Variable VarIndex="10" Expression="j_qg[0]" Label="j_qg[0]" Title="leadjet_qg" Unit="" Internal="j_qg_0_" Type="F" Min="-1.00000000e+00" Max="1.00000000e+00"/>
    <Variable VarIndex="11" Expression="j_qg[1]" Label="j_qg[1]" Title="subleadjet_qg" Unit="" Internal="j_qg_1_" Type="F" Min="-1.00000000e+00" Max="1.00000000e+00"/>
    <Variable VarIndex="12" Expression="dphivj1" Label="dphivj1" Title="dphivj1" Unit="" Internal="dphivj1" Type="F" Min="4.00245190e-04" Max="3.14157629e+00"/>
    <Variable VarIndex="13" Expression="dphivj2" Label="dphivj2" Title="dphivj2" Unit="" Internal="dphivj2" Type="F" Min="9.10609961e-05" Max="9.99900000e+03"/>
    <Variable VarIndex="14" Expression="ht" Label="ht" Title="ht" Unit="" Internal="ht" Type="F" Min="9.63584747e+01" Max="3.74047632e+03"/>
    <Variable VarIndex="15" Expression="isotropy" Label="isotropy" Title="isotropy" Unit="" Internal="isotropy" Type="F" Min="1.44325674e-01" Max="9.98565674e-01"/>
    <Variable VarIndex="16" Expression="D" Label="D" Title="D" Unit="" Internal="D" Type="F" Min="2.18279756e-12" Max="9.41354632e-01"/>
  </Variables>
  <Spectators NSpec="0"/>
  <Classes NClass="2">
    <Class Name="Signal" Index="0"/>
    <Class Name="Background" Index="1"/>
  </Classes>
  <Transformations NTransformations="0"/>
  <MVAPdfs>
    <PDF Name="BDT_VBF0HighPt_PDFSig" MinNSmooth="0" MaxNSmooth="0" InterpolMethod="2" KDE_type="1" KDE_iter="1" KDE_border="1" KDE_finefactor="1.0000000000000000e+00">
      <Histogram Name="BDT_tr_S_original" NBins="1065" XMin="-5.7767927646636963e-01" XMax="7.2482883930206299e-01" HasEquidistantBins="1">
        0.00000000e+00 0.00000000e+00 0.00000000e+00 0.00000000e+00 0.00000000e+00 0.00000000e+00 0.00000000e+00 0.00000000e+00 0.00000000e+00 0.00000000e+00 0.00000000e+00 0.00000000e+00 0.00000000e+00 0.00000000e+00 0.00000000e+00 0.00000000e+00 0.00000000e+00 0.00000000e+00 0.00000000e+00 0.00000000e+00 0.00000000e+00 0.00000000e+00 0.00000000e+00 0.00000000e+00 0.00000000e+00 0.00000000e+00 0.00000000e+00 0.00000000e+00 0.00000000e+00 0.00000000e+00 0.00000000e+00 0.00000000e+00 0.00000000e+00 0.00000000e+00 0.00000000e+00 0.00000000e+00 0.00000000e+00 0.00000000e+00 0.00000000e+00 0.00000000e+00 0.00000000e+00 0.00000000e+00 0.00000000e+00 0.00000000e+00 0.00000000e+00 0.00000000e+00 0.00000000e+00 0.00000000e+00 0.00000000e+00 0.00000000e+00 0.00000000e+00 0.00000000e+00 0.00000000e+00 0.00000000e+00 0.00000000e+00 0.00000000e+00 3.62349103e-02 0.00000000e+00 0.00000000e+00 0.00000000e+00 0.00000000e+00 0.00000000e+00 0.00000000e+00 0.00000000e+00 0.00000000e+00 0.00000000e+00 0.00000000e+00 0.00000000e+00 0.00000000e+00 0.00000000e+00 0.00000000e+00 0.00000000e+00 0.00000000e+00 0.00000000e+00 0.00000000e+00 0.00000000e+00 0.00000000e+00 0.00000000e+00 4.98016507e-03 -8.43005679e-02 7.91298932e-02 0.00000000e+00 0.00000000e+00 0.00000000e+00 0.00000000e+00 0.00000000e+00 0.00000000e+00 2.32054372e-02 0.00000000e+00 1.37114086e-01 0.00000000e+00 -8.55189207e-02 0.00000000e+00 -8.48982248e-02 0.00000000e+00 0.00000000e+00 0.00000000e+00 0.00000000e+00 0.00000000e+00 0.00000000e+00 0.00000000e+00 0.00000000e+00 -2.53296640e-02 0.00000000e+00 0.00000000e+00 0.00000000e+00 3.64041785e-02 3.75482399e-03 0.00000000e+00 0.00000000e+00 0.00000000e+00 0.00000000e+00 0.00000000e+00 0.00000000e+00 0.00000000e+00 -1.06807189e-01 0.00000000e+00 0.00000000e+00 2.53979048e-02 1.53606167e-03 0.00000000e+00 7.87836456e-02 0.00000000e+00 6.45927277e-02 0.00000000e+00 3.48795300e-02 1.70782420e-01 0.00000000e+00 0.00000000e+00 1.10331646e-02 0.00000000e+00 -3.54085182e-05 1.37390280e-01 9.67353737e-02 7.37621270e-02 3.39553157e-02 4.07345348e-02 -4.02133297e-02 0.00000000e+00 3.68135950e-02 -3.71889672e-02 1.44636936e-01 1.46042960e-01 1.50471370e-01 8.10549143e-02 3.58691276e-02 0.00000000e+00 0.00000000e+00 -6.34542415e-02 3.31854634e-02 0.00000000e+00 3.93859640e-02 1.07453146e-01 2.73226877e-02 1.14530031e-01 2.55991380e-02 1.27297470e-01 2.78101931e-02 -3.47009164e-02 5.81297010e-02 2.81570265e-02 -7.42276631e-02 1.21714741e-01 4.65085386e-02 4.38314031e-02 1.06536365e-01 1.60349541e-01 0.00000000e+00 2.48665617e-02 6.54072394e-02 3.12197901e-02 3.11650906e-02 1.35519660e-01 1.07345479e-02 3.12220475e-02 5.08997520e-03 2.13590707e-03 1.10336610e-01 1.34468137e-01 6.44580524e-02 -8.12617019e-03 0.00000000e+00 5.97634355e-02 1.26790640e-02 -7.47304257e-02 6.10017974e-02 1.33142677e-01 -4.95272749e-02 2.19287489e-02 5.74834184e-02 1.15627655e-01 1.30109164e-01 -7.66976706e-02 -6.48504440e-02 7.95548772e-02 1.56707885e-01 -1.62966958e-03 4.77588920e-02 1.03234103e-01 1.77402068e-01 1.83858738e-01 -4.05698216e-03 1.69431503e-01 4.60930028e-02 5.18553476e-02 6.84366054e-02 2.62813649e-01 9.54886989e-02 9.25828354e-02 1.96975907e-02 8.51202162e-02 7.16917746e-03 2.26934821e-01 1.53787213e-01 2.56054014e-01 1.39118207e-01 4.58988409e-02 1.32936171e-01 1.79862080e-01 4.72564003e-02 1.69517682e-01 2.36500225e-01 -1.95759784e-02 1.49564514e-01 2.50314763e-02 2.68553366e-01 2.61482056e-01 1.97360694e-01 1.03876879e-02 1.54484542e-01 1.51293538e-01 5.40116981e-02 1.02172493e-01 1.03549849e-01 2.46540404e-01 2.26296372e-01 1.35816613e-01 3.13335359e-01 2.36177873e-01 7.59823059e-02 1.00455745e-01 3.54678157e-01 1.79755919e-01 2.50119568e-01 2.12787560e-02 2.75742885e-01 2.91576558e-01 1.98246284e-01 4.09397209e-01 3.06210751e-01 2.44226993e-01 4.05532467e-01 2.59310815e-01 3.18876601e-01 3.50261370e-01 2.04343253e-01 2.85487910e-01 1.24713082e-01 7.94473564e-02 3.27490455e-01 5.53826153e-01 6.29160081e-02 3.46226322e-01 2.46055105e-01 2.59990785e-02 2.15645590e-01 5.52871118e-01 4.06793969e-01 2.55431473e-01 3.24562337e-01 3.25001572e-01 1.90665903e-01 2.51506429e-01 4.93663693e-01 5.29989707e-01 2.79720593e-01 4.61973628e-01 2.47076789e-01 5.34752760e-01 3.59234822e-01 3.50055834e-01 5.67214585e-01 2.97775931e-01 2.77536541e-01 8.07188893e-01 -5.90785819e-03 8.28442592e-02 1.27164387e-01 1.02924061e-01 2.77796222e-01 3.82358816e-01 2.40693894e-01 4.81073821e-01 4.45079084e-01 3.46923880e-01 6.13229577e-01 8.00971975e-01 5.16799698e-01 3.29815315e-01 2.24534987e-01 4.09699614e-01 6.30716855e-01 4.39537794e-01 3.03279247e-01 1.91260254e-01 3.42003848e-01 4.93207935e-01 5.45989320e-01 5.27950835e-01 8.00404818e-01 3.33212394e-01 1.62789526e-01 5.81202531e-01 6.92777155e-01 5.87514820e-01 4.44717269e-01 4.47782219e-01 8.46088418e-01 3.58768380e-01 6.90962098e-01 7.24970343e-01 5.69399962e-01 6.69027671e-01 7.61751962e-01 7.83739591e-01 1.14443372e+00 4.67126620e-01 1.08693829e+00 1.97015377e-01 5.02462012e-01 7.14654225e-01 9.34991542e-01 4.93962414e-01 8.41635227e-01 5.63229912e-01 5.28538620e-01 1.23199245e+00 5.11770870e-01 8.24802168e-01 7.11339326e-01 7.22064025e-01 7.25971393e-01 6.03453514e-01 7.00423285e-01 4.69754711e-01 5.66030535e-01 5.13753602e-01 5.60449096e-01 1.21584732e+00 8.32490963e-01 1.03731146e+00 1.01218221e+00 6.64112661e-01 1.27279776e+00 6.00430345e-01 7.42071624e-01 8.05124062e-01 3.34446881e-01 4.56572523e-01 5.63849524e-01 6.46002448e-01 6.80891090e-01 1.08810712e+00 4.82147340e-01 1.36512607e+00 8.36696641e-01 8.49478744e-01 8.14153652e-01 7.22793925e-01 8.66199006e-01 7.24715082e-01 3.40038010e-01 7.20465098e-01 1.00411575e+00 9.75869561e-01 9.33375617e-01 1.11031627e+00 6.66433307e-01 1.02047229e+00 7.07578093e-01 1.28130212e+00 6.26804713e-01 5.94780086e-01 1.02347006e+00 7.33995226e-01 1.41443329e+00 1.22534581e+00 5.83377999e-01 1.17845909e+00 7.14509122e-01 5.45633356e-01 1.32565848e+00 1.03051380e+00 6.65902441e-01 1.04185959e+00 1.24301348e+00 9.95455655e-01 1.08697808e+00 1.05312821e+00 1.37845028e+00 1.55214843e+00 9.62816042e-01 6.18953922e-01 1.86662820e+00 1.42975760e+00 1.18724310e+00 9.22543919e-01 1.12967790e+00 1.60772493e+00 1.02004624e+00 1.20344326e+00 7.93611931e-01 1.19116360e+00 7.18745859e-01 1.37161528e+00 1.07858929e+00 1.05157614e+00 1.25988424e+00 6.35519614e-01 1.32571764e+00 1.13803917e+00 1.07322663e+00 1.60661645e+00 1.37076016e+00 1.31129726e+00 8.66171147e-01 9.47588582e-01 1.18157231e+00 8.74070748e-01 7.50631135e-01 1.19542417e+00 1.43307607e+00 1.44786273e+00 1.34615808e+00 1.42304504e+00 9.67420347e-01 1.39827776e+00 9.54021979e-01 1.45888414e+00 1.04789991e+00 9.29021646e-01 1.99167866e+00 1.27714522e+00 1.11101259e+00 1.76684090e+00 1.05717947e+00 1.47875258e+00 1.26577580e+00 2.03829287e+00 5.78054606e-01 1.51345391e+00 8.61233367e-01 1.30831187e+00 1.46339561e+00 1.07472605e+00 1.78898748e+00 7.93245700e-01 1.86860266e+00 1.82091201e+00 1.66891984e+00 1.56885809e+00 1.33413051e+00 1.25500963e+00 1.17670156e+00 1.54122956e+00 1.79390345e+00 1.68541870e+00 1.38585271e+00 1.59135136e+00 1.51850535e+00 1.63872910e+00 1.46360759e+00 1.44814609e+00 1.06472646e+00 1.58519635e+00 1.01831381e+00 1.12586520e+00 1.43793563e+00 1.65419296e+00 1.57185359e+00 1.82808792e+00 1.44201542e+00 9.48611784e-01 1.64537706e+00 1.13748640e+00 1.08076206e+00 1.21040640e+00 2.40159924e+00 7.32966875e-01 1.66820288e+00 1.83552041e+00 1.37678278e+00 1.65714545e+00 1.36095848e+00 7.57992937e-01 1.84748041e+00 1.77961321e+00 1.38664411e+00 2.14601025e+00 1.88033646e+00 1.23821604e+00 1.84452693e+00 1.37794759e+00 1.70061711e+00 1.15453630e+00 1.50942403e+00 2.06101372e+00 1.18946764e+00 2.00622475e+00 1.77195330e+00 1.56596174e+00 2.77499137e+00 1.94089864e+00 9.60781571e-01 1.21477286e+00 1.66042967e+00 1.98545135e+00 2.25813862e+00 1.61616566e+00 1.52803525e+00 1.49349904e+00 2.00492288e+00 2.12024361e+00 1.65741136e+00 1.85589293e+00 1.36206072e+00 1.66086604e+00 1.18443634e+00 1.55033774e+00 1.55592591e+00 1.79593849e+00 1.99104950e+00 1.86283802e+00 1.71706665e+00 1.96775306e+00 1.77138531e+00 2.15896477e+00 1.99467485e+00 1.64548650e+00 1.74817026e+00 1.54947053e+00 1.99977874e+00 2.20441966e+00 1.78233173e+00 2.34657213e+00 1.18022817e+00 2.25570750e+00 9.57651078e-01 1.20499901e+00 2.80258830e+00 2.29131964e+00 1.25259935e+00 2.03371334e+00 1.39265949e+00 1.61639043e+00 2.41077070e+00 1.66699788e+00 1.17414298e+00 1.51884082e+00 1.90495793e+00 1.41593806e+00 2.23506354e+00 2.43054668e+00 1.93396088e+00 2.00682268e+00 1.68197124e+00 2.21547516e+00 2.22010868e+00 1.37354829e+00 2.74016888e+00 1.62313158e+00 2.02844567e+00 1.91320060e+00 1.97278106e+00 1.84902670e+00 2.28841387e+00 1.10770016e+00 1.32669486e+00 1.65066120e+00 1.84015719e+00 1.75126065e+00 2.03974344e+00 1.93224801e+00 1.25601209e+00 1.84948940e+00 1.80300740e+00 2.37992804e+00 1.50242107e+00 2.25253556e+00 1.82610216e+00 2.01946300e+00 1.70256490e+00 2.14446347e+00 2.20048448e+00 1.18393954e+00 9.87209216e-01 1.65628705e+00 2.49436559e+00 2.23810421e+00 2.03023835e+00 1.20558455e+00 1.54604005e+00 1.88359399e+00 1.85718469e+00 1.83091850e+00 1.19899069e+00 1.84192901e+00 1.33325080e+00 1.78701459e+00 2.25274091e+00 1.67510511e+00 1.45923758e+00 2.10401765e+00 1.33313575e+00 1.98723270e+00 2.17519561e+00 2.61653806e+00 1.66556980e+00 7.92915823e-01 1.97967327e+00 2.35446043e+00 1.93095892e+00 1.49356227e+00 1.40431486e+00 1.65819520e+00 1.76990722e+00 2.36424881e+00 1.55394400e+00 1.99784884e+00 1.83741399e+00 1.84396267e+00 2.68239337e+00 1.10850589e+00 1.98246573e+00 1.85540499e+00 1.79837220e+00 2.02460650e+00 1.60405498e+00 2.40210394e+00 1.74714212e+00 1.88190346e+00 1.72734718e+00 1.96523199e+00 1.89675491e+00 1.41406054e+00 7.40038480e-01 2.04270186e+00 2.52135985e+00 2.37378589e+00 1.92362309e+00 1.78303668e+00 1.35449132e+00 1.51983986e+00 1.65569235e+00 1.57009292e+00 1.61538877e+00 2.44174651e+00 1.74081743e+00 2.01049576e+00 2.04659750e+00 1.12848122e+00 2.01956533e+00 1.90287023e+00 8.72891140e-01 1.75130941e+00 1.93385624e+00 1.53228604e+00 1.94363935e+00 1.79304569e+00 1.72594947e+00 1.45625105e+00 2.76007764e+00 1.70671090e+00 1.55913820e+00 1.50726330e+00 1.85106558e+00 2.08530700e+00 1.51104019e+00 1.38246015e+00 1.66881847e+00 1.57843248e+00 1.35081044e+00 1.74241798e+00 1.79805107e+00 1.74846734e+00 1.36962748e+00 1.76750725e+00 1.24012699e+00 1.62705470e+00 2.16320979e+00 1.78371292e+00 1.68522293e+00 1.73582246e+00 1.27812347e+00 1.17039732e+00 1.74244418e+00 1.52365277e+00 2.21618297e+00 1.68890533e+00 2.32131396e+00 1.43698018e+00 1.67408831e+00 2.08155049e+00 2.18302281e+00 1.90190705e+00 1.09711878e+00 1.60496610e+00 1.86878287e+00 2.10856283e+00 1.62920627e+00 1.30673421e+00 1.01309595e+00 1.74127915e+00 1.04897603e+00 1.17264214e+00 1.48646398e+00 1.76737448e+00 1.90230465e+00 1.44985076e+00 1.08175256e+00 2.71776312e+00 1.47627026e+00 1.61748561e+00 1.35522918e+00 1.20245415e+00 1.44446217e+00 1.61236962e+00 8.52085997e-01 9.75495022e-01 1.20325452e+00 1.36244834e+00 1.76402427e+00 1.61542220e+00 1.37307669e+00 1.54684806e+00 1.45727869e+00 1.01672089e+00 1.43943054e+00 1.89895115e+00 1.23537028e+00 1.30713603e+00 8.27427113e-01 8.05545771e-01 1.11127813e+00 1.37505813e+00 7.34070675e-01 1.06970991e+00 9.87459637e-01 1.05301196e+00 1.13434046e+00 9.92920364e-01 1.39592741e+00 2.10967871e+00 9.14150710e-01 1.20138707e+00 1.08828890e+00 5.77018104e-01 1.19265314e+00 1.38395318e+00 1.13024258e+00 6.24882321e-01 8.43694842e-01 1.46446854e+00 1.44715230e+00 1.79610653e+00 8.90085690e-01 1.30398355e+00 1.67998851e+00 1.16342199e+00 8.67778816e-01 1.04488361e+00 1.14725429e+00 1.10181952e+00 1.20426757e+00 9.34044988e-01 1.60593803e+00 1.48003286e+00 1.08230976e+00 9.03725462e-01 1.16623745e+00 8.61656216e-01 1.04933539e+00 1.23025316e+00 1.09330707e+00 1.52146104e+00 9.14603465e-01 1.04006917e+00 1.01613383e+00 1.68492595e+00 6.93938785e-01 1.28340786e+00 1.04131733e+00 1.22469788e+00 7.88472216e-01 1.18167195e+00 8.85011737e-01 7.87418316e-01 8.74386988e-01 1.31539818e+00 7.91361860e-01 9.01822980e-01 5.34944602e-01 1.08877258e+00 8.12992338e-01 1.11476501e+00 1.34003299e+00 8.39175056e-01 1.40936896e+00 1.01360687e+00 1.06641871e+00 7.74617746e-01 9.76840033e-01 6.01786381e-01 1.14419680e+00 9.45672137e-01 1.08878543e+00 3.87097350e-01 1.17571124e+00 1.14965102e+00 5.83862145e-01 9.09793029e-01 1.21205828e+00 1.18900925e+00 5.51025328e-01 5.42014644e-01 9.62882024e-01 5.88349449e-01 8.89655350e-01 1.26155498e+00 1.15581361e+00 5.11860219e-01 9.80446681e-01 7.10947590e-01 8.53749617e-01 6.45607056e-01 4.00711894e-01 9.56947615e-01 4.56457535e-01 7.87116802e-01 5.07371270e-01 5.59491294e-01 1.19311955e+00 6.46903041e-01 9.74942352e-01 5.26634663e-01 1.18337250e+00 9.42780348e-01 4.89198070e-01 8.12581678e-01 6.41413305e-01 1.10804460e+00 4.67938451e-01 3.21574196e-01 5.50025553e-01 7.54382691e-01 9.24919984e-01 7.56999900e-01 6.17953078e-01 5.24743732e-01 5.38696687e-01 3.78743847e-01 6.57612681e-01 9.17587142e-01 4.15877296e-01 7.46378786e-01 9.24448070e-01 6.75444970e-01 4.30061275e-01 4.40156719e-01 3.88024362e-01 5.51437433e-01 9.92358130e-01 5.11522550e-01 7.07058968e-01 2.34899089e-01 5.18343000e-01 5.76837187e-01 3.99826134e-01 2.30852055e-01 3.31522779e-01 7.43564692e-01 6.15546921e-01 5.20003057e-01 6.83387367e-01 6.65101849e-01 5.34666332e-01 5.90713997e-01 6.10135488e-01 4.08403732e-01 9.13233380e-01 5.39436647e-01 1.90497839e-01 4.31165071e-01 2.25445827e-01 1.69896469e-01 4.44867646e-01 2.57628545e-01 6.11524747e-01 3.61622070e-01 6.35163753e-01 6.32168796e-01 3.35538525e-01 2.93053155e-01 5.61332200e-01 3.75509404e-01 4.87747256e-01 2.03438439e-01 2.79015318e-01 2.05637590e-01 3.57125877e-01 2.58075531e-01 1.71679227e-01 2.99182798e-01 4.78652044e-01 4.33771818e-01 2.63495221e-01 2.07689882e-01 5.53100312e-01 5.24877179e-01 2.73423039e-01 6.52960185e-01 3.52293407e-01 2.38793968e-01 1.62869918e-01 3.74626502e-01 4.64585512e-01 3.89929297e-01 1.77974054e-01 1.09424424e-01 1.69219360e-01 1.80936313e-01 4.17929707e-01 3.89558299e-01 4.41468246e-01 3.83383078e-01 3.96061747e-01 2.42837367e-01 3.07844002e-01 2.95770496e-01 4.39281310e-01 2.40683735e-01 2.17632011e-01 1.06197349e-01 1.37516476e-01 0.00000000e+00 3.30612915e-01 4.06890526e-01 1.91153384e-01 2.64828709e-01 2.67547822e-01 4.19607823e-01 1.25579814e-01 3.09179397e-01 9.81675505e-02 1.92070307e-01 2.91968510e-01 6.71055897e-02 4.67965442e-01 3.74714585e-01 9.61147552e-02 3.99974822e-01 2.45738778e-01 2.85620389e-01 0.00000000e+00 7.59516333e-02 1.57995682e-01 2.76098671e-01 1.06151353e-01 1.90031249e-01 2.96852602e-01 3.56335212e-01 1.08165911e-03 6.95428351e-02 5.74760851e-02 2.94610292e-01 2.64292077e-01 0.00000000e+00 8.23092099e-02 8.14126383e-02 7.17160961e-02 2.33192244e-01 1.33944906e-01 4.66069179e-02 0.00000000e+00 1.28655180e-01 2.08448381e-01 9.53051966e-02 5.84723787e-02 1.17361051e-02 3.28693143e-01 7.47752945e-02 1.92694784e-01 7.72704190e-02 3.09079891e-01 2.98708172e-02 2.18838545e-01 1.09899752e-01 9.76265833e-02 1.40003362e-01 5.99637037e-02 0.00000000e+00 1.41439360e-01 1.33184803e-01 1.63988528e-01 1.48779435e-01 5.91762009e-02 1.76657626e-01 7.21868899e-02 1.17387894e-01 1.54725770e-01 6.50752575e-02 0.00000000e+00 0.00000000e+00 1.79767457e-01 6.93806751e-02 2.01189101e-01 7.31470512e-02 0.00000000e+00 1.06881465e-01 1.79761773e-01 2.21282316e-01 0.00000000e+00 5.27557588e-04 1.40034454e-01 0.00000000e+00 5.69465427e-02 6.35296580e-02 1.17801011e-01 0.00000000e+00 5.41332686e-02 0.00000000e+00 7.25799779e-02 6.99936540e-02 3.37109369e-02 1.55093757e-02 5.32467776e-02 3.34409947e-02 6.71276491e-02 0.00000000e+00 0.00000000e+00 3.58629457e-02 1.05434788e-01 -6.00182625e-02 0.00000000e+00 1.82132691e-02 0.00000000e+00 0.00000000e+00 0.00000000e+00 0.00000000e+00 0.00000000e+00 0.00000000e+00 1.00684913e-01 5.75940097e-02 0.00000000e+00 0.00000000e+00 9.26084275e-02 8.03062348e-02 7.26831448e-02 0.00000000e+00 0.00000000e+00 0.00000000e+00 0.00000000e+00 0.00000000e+00 0.00000000e+00 0.00000000e+00 
      </Histogram>
    </PDF>
    <PDF Name="BDT_VBF0HighPt_PDFBkg" MinNSmooth="0" MaxNSmooth="0" InterpolMethod="2" KDE_type="1" KDE_iter="1" KDE_border="1" KDE_finefactor="1.0000000000000000e+00">
      <Histogram Name="BDT_tr_B_original" NBins="1065" XMin="-5.7767927646636963e-01" XMax="7.2482883930206299e-01" HasEquidistantBins="1">
        8.33398795e-02 0.00000000e+00 0.00000000e+00 0.00000000e+00 0.00000000e+00 0.00000000e+00 0.00000000e+00 0.00000000e+00 0.00000000e+00 0.00000000e+00 0.00000000e+00 0.00000000e+00 1.05095482e-01 0.00000000e+00 0.00000000e+00 0.00000000e+00 0.00000000e+00 0.00000000e+00 0.00000000e+00 0.00000000e+00 0.00000000e+00 0.00000000e+00 2.50498090e-02 0.00000000e+00 7.63947579e-02 0.00000000e+00 0.00000000e+00 0.00000000e+00 0.00000000e+00 0.00000000e+00 0.00000000e+00 0.00000000e+00 5.47909568e-02 0.00000000e+00 0.00000000e+00 5.25579133e-02 0.00000000e+00 8.26065549e-02 3.95923197e-02 0.00000000e+00 2.05191417e-01 0.00000000e+00 3.47412642e-02 7.85926621e-02 0.00000000e+00 2.06388236e-01 2.25985920e-01 0.00000000e+00 0.00000000e+00 0.00000000e+00 6.56765961e-02 8.60927062e-02 2.46093900e-01 0.00000000e+00 0.00000000e+00 1.14135618e-01 2.72827427e-01 0.00000000e+00 0.00000000e+00 0.00000000e+00 3.51543370e-06 1.65700692e-01 2.02369524e-01 2.18181767e-01 1.75834310e-01 0.00000000e+00 0.00000000e+00 0.00000000e+00 2.49785488e-02 1.61711468e-01 2.06886209e-01 0.00000000e+00 0.00000000e+00 6.63287366e-02 8.70176876e-02 0.00000000e+00 7.98719121e-02 0.00000000e+00 2.25235565e-01 3.87215604e-01 0.00000000e+00 3.65560367e-01 3.42968348e-02 5.38449755e-02 3.28228576e-01 1.48102466e-01 8.17178780e-02 8.30514977e-02 5.34433210e-01 1.61570947e-01 3.98120896e-02 0.00000000e+00 1.19050275e-06 2.89190284e-01 7.21646846e-01 7.10852836e-02 1.07156783e-01 2.05676089e-01 5.28803724e-01 2.66337556e-01 2.29657717e-01 1.66767649e-01 2.73974277e-01 2.10450827e-01 1.37463355e-01 1.45194704e-01 4.46883537e-01 2.89616323e-01 3.88487312e-02 4.97602982e-01 1.02893761e-01 0.00000000e+00 7.18448452e-02 1.28986428e-01 1.75414091e-01 2.28458698e-01 2.61756936e-01 2.46138262e-01 0.00000000e+00 3.27760027e-01 4.22099819e-01 2.84371120e-01 3.58475824e-01 1.67417346e-01 3.42945919e-01 2.30054368e-01 3.80422201e-02 4.51468787e-01 3.21057116e-01 2.91941622e-01 4.40032760e-01 3.24461174e-01 3.46148898e-01 1.50501946e-01 1.46932477e-01 3.64769856e-01 6.08502474e-01 2.24002171e-02 8.29395280e-01 4.25775919e-01 1.01383382e+00 3.51659094e-01 5.01462402e-01 2.91750046e-01 6.32479344e-01 4.32406539e-01 7.15985186e-01 5.13052530e-01 7.01778148e-01 5.63473095e-01 3.71296545e-01 3.05599434e-01 5.56569123e-01 5.14915621e-01 1.79825469e-01 3.21958892e-01 3.60875218e-01 9.04354763e-01 7.61029599e-01 6.13019764e-01 6.15889147e-01 4.67827078e-01 3.65366941e-01 3.03371526e-01 4.57658051e-01 6.78125041e-01 6.74020776e-01 7.18192291e-01 4.21144418e-01 5.71988336e-01 9.13377865e-01 5.00390131e-01 9.25097126e-01 4.72782808e-01 2.63289681e-01 1.11423727e+00 2.61729942e+00 6.44845878e-01 3.67311744e-01 8.40384547e-01 1.14023831e+00 9.41942153e-01 7.62932392e-01 5.66113404e-01 7.58211840e-01 1.14791153e+00 1.44134099e+00 2.02268775e-01 1.83862848e-01 9.72282680e-01 9.80941469e-01 1.24759927e+00 7.55410937e-01 1.42210076e+00 5.67920716e-01 1.12447826e+00 4.81735989e-01 7.11063362e-01 4.50599731e-01 3.97709161e-01 1.27071534e+00 9.29953542e-01 1.55157779e+00 1.04586331e+00 9.71456347e-01 8.73308157e-01 4.99663981e-01 6.91817717e-01 1.39309041e+00 1.45813286e+00 8.66844530e-01 1.46255011e+00 1.16778423e+00 1.61348036e+00 5.49056690e-01 7.96609904e-01 9.16560044e-01 9.93543947e-01 7.67440129e-01 1.22387866e+00 1.05883526e+00 1.22185446e+00 1.38466861e+00 8.49577407e-01 1.57915935e+00 1.64745118e+00 9.57550991e-01 9.49236598e-01 1.54944600e+00 5.30318785e-01 7.69129388e-01 9.48368086e-01 9.94067382e-01 1.30169003e+00 1.82878771e+00 1.47424929e+00 6.67357132e-01 1.14353710e+00 2.10720576e+00 1.49227986e+00 3.68522305e-01 2.04879955e+00 1.58083955e+00 1.88962695e+00 1.58595891e+00 1.26326124e+00 1.65198625e+00 8.03451032e-01 2.08286426e+00 9.54655442e-01 1.06520374e+00 7.09081295e-01 4.02888872e-01 1.19786266e+00 2.07420587e+00 1.52407405e+00 9.86916736e-01 1.26825663e+00 1.25035606e+00 1.77294007e+00 2.15601976e+00 1.17709033e+00 1.37088790e+00 2.54376492e+00 1.30225468e+00 1.45054630e+00 1.36361089e+00 1.75730691e+00 1.04021469e+00 1.36860839e+00 1.76646551e+00 1.52303107e+00 3.11476215e+00 3.39065377e+00 1.99049205e+00 1.59619023e+00 1.92596780e+00 2.09300015e+00 1.47284209e+00 1.41324689e+00 8.92780794e-01 2.77013726e+00 2.02253672e+00 2.69399801e+00 2.57022142e+00 9.57026611e-01 1.56338796e+00 1.27061139e+00 1.40617082e+00 1.40307694e+00 2.19064505e+00 2.37436594e+00 2.72113121e+00 1.87536426e+00 1.92715451e+00 2.39653172e+00 2.92567987e+00 1.88796050e+00 2.16588379e+00 8.06019437e-01 1.77613548e+00 1.96359770e+00 1.62056878e+00 1.95547346e+00 3.83949753e+00 1.34087065e+00 2.09558205e+00 2.32917448e+00 1.82513978e+00 2.88760436e+00 1.66832718e+00 1.85730996e+00 1.89704505e+00 1.77753350e+00 1.82685897e+00 1.41262445e+00 1.84423465e+00 1.55688563e+00 1.31471822e+00 2.71239333e+00 3.19759516e+00 2.26723020e+00 1.59895567e+00 2.73648462e+00 2.51901880e+00 2.44228453e+00 2.76345482e+00 2.69827332e+00 2.19821151e+00 2.26828254e+00 1.98547186e+00 1.92678598e+00 1.36367711e+00 1.34670399e+00 3.41932218e+00 1.45412423e+00 1.65052308e+00 2.59631004e+00 1.75295692e+00 1.65275460e+00 2.33884060e+00 2.96403738e+00 2.68250313e+00 3.21069807e+00 2.84389592e+00 2.09094377e+00 2.46584224e+00 1.96936084e+00 1.43732008e+00 2.22778659e+00 1.11087751e+00 3.39336139e+00 2.11398127e+00 1.66015354e+00 1.51682673e+00 2.19772456e+00 1.42132042e+00 2.12606897e+00 1.19297807e+00 2.68564866e+00 2.24716540e+00 1.24568248e+00 3.13414560e+00 2.11658917e+00 2.55477309e+00 2.20823286e+00 2.04725503e+00 1.69476281e+00 2.99172968e+00 2.02118568e+00 9.83130640e-01 3.05072446e+00 2.18747774e+00 1.13034973e+00 2.03655190e+00 2.91875234e+00 1.72775914e+00 2.04935481e+00 2.47534081e+00 2.51338578e+00 1.72238690e+00 1.80780406e+00 1.65090058e+00 2.42841833e+00 2.03715896e+00 7.62485625e-01 1.74270305e+00 1.92321720e+00 3.57534696e+00 2.42866258e+00 1.99035057e+00 2.43430883e+00 2.83741107e+00 3.73456874e+00 2.24767938e+00 1.31658984e+00 2.86464151e+00 2.53957518e+00 3.53187392e+00 2.29650123e+00 3.13857869e+00 1.93607248e+00 2.12173178e+00 2.20365283e+00 1.10875143e+00 1.66526084e+00 1.81357605e+00 1.86283350e+00 2.31426156e+00 2.31617773e+00 1.56889060e+00 2.30370336e+00 1.13201256e+00 2.14559123e+00 1.84878953e+00 2.29095340e+00 1.80403462e+00 2.42936907e+00 3.67319991e+00 2.49229063e+00 2.30977278e+00 1.72995755e+00 2.37724482e+00 2.02103512e+00 1.82802910e+00 1.44953736e+00 2.14690658e+00 2.22050600e+00 1.75518641e+00 3.21784314e+00 2.41373786e+00 1.72732248e+00 2.20686177e+00 1.75136146e+00 1.55464629e+00 1.62766290e+00 2.18653478e+00 1.13182641e+00 2.26214894e+00 1.32285913e+00 1.39468913e+00 1.58290720e+00 3.32249306e+00 1.61024909e+00 1.67703673e+00 2.27858384e+00 1.58986493e+00 1.87060118e+00 2.05124472e+00 1.33821399e+00 1.19627182e+00 1.55898069e+00 2.11349974e+00 1.20520872e+00 2.49614244e+00 2.66085210e+00 2.68302435e+00 2.46374842e+00 2.56044319e+00 1.37461688e+00 2.04384520e+00 1.80973465e+00 2.29153374e+00 1.87676389e+00 1.45173284e+00 2.40465531e+00 1.31131799e+00 2.97463323e+00 1.51408911e+00 2.62846432e+00 1.70708189e+00 1.69279899e+00 1.20281823e+00 2.87887650e+00 2.87229998e+00 1.11005188e+00 1.88609546e+00 1.43992313e+00 1.36057762e+00 1.91806009e+00 2.01384484e+00 2.04297236e+00 1.80820369e+00 1.66059060e+00 1.06952588e+00 1.81811547e+00 9.85114607e-01 2.10754433e+00 2.22377311e+00 1.56811266e+00 1.14433697e+00 1.50431543e+00 1.51033225e+00 1.73290432e+00 1.31727290e+00 1.13696246e+00 1.66571202e+00 7.59339422e-01 1.35525360e+00 1.05057538e+00 1.52744743e+00 1.60574932e+00 1.63893321e+00 1.90643293e+00 1.94652514e+00 1.18295688e+00 1.61029593e+00 2.02506079e+00 1.51403626e+00 2.12104486e+00 1.05551891e+00 8.48654464e-01 1.05579921e+00 1.69786807e+00 1.48495557e+00 8.05618822e-01 1.75059650e+00 1.62875210e+00 1.39050980e+00 7.39899298e-01 1.56710444e+00 2.21691882e+00 1.55657451e+00 1.47101541e+00 1.58430749e+00 1.20249255e+00 1.88621630e+00 1.77527161e+00 1.48081437e+00 1.38010720e+00 1.62029131e+00 4.98616069e-01 1.20105851e+00 2.05100115e+00 9.85334999e-01 1.53065599e+00 9.88329857e-01 6.10173974e-01 1.15286320e+00 1.47282605e+00 9.65620765e-01 1.61468045e+00 1.35034864e+00 8.06431051e-01 1.40124989e+00 9.17143789e-01 1.97567011e+00 1.30955327e+00 8.14083694e-01 1.26067503e+00 1.65061904e+00 1.58858524e+00 1.26825777e+00 1.61337665e+00 1.14010196e+00 1.01751899e+00 6.58592841e-01 8.95585115e-01 1.12988393e+00 1.31371490e+00 1.33935993e+00 6.68111840e-01 1.02739683e+00 1.33240335e+00 6.01565856e-01 8.49343806e-01 1.55863752e+00 8.88564789e-01 6.23086345e-01 1.64866347e+00 7.32646971e-01 1.52255874e+00 1.93471790e+00 1.74621854e+00 1.90942833e+00 1.23740105e+00 8.84429832e-01 1.40897203e+00 1.33552330e+00 6.69899730e-01 1.25632896e+00 9.29245919e-01 1.65372269e+00 1.10203124e+00 1.43407325e+00 1.23965549e+00 9.28527037e-01 1.10400361e+00 1.29918805e+00 3.35352331e-01 1.53614867e+00 6.62479475e-01 1.09011060e+00 4.59053494e-01 1.64243334e+00 7.82415653e-01 1.83078314e+00 3.35467455e-01 7.97534881e-01 1.51677977e+00 1.05480507e+00 6.98436065e-01 1.08005019e+00 9.03764789e-01 9.39705660e-01 4.28393140e-01 1.05390200e+00 5.25502934e-01 4.67820587e-01 1.00508116e+00 5.17103019e-01 4.34658199e-01 7.00045307e-01 9.64023162e-01 5.94596885e-01 4.06433279e-01 7.43832794e-01 9.39341551e-01 3.25755558e-01 9.85180555e-01 9.62360574e-01 7.01022540e-01 6.08157642e-01 1.10196074e+00 3.40529354e-01 4.83340563e-01 9.77888695e-01 8.78860869e-01 8.92937596e-01 7.63626977e-01 4.33222845e-01 8.07839604e-01 9.24202916e-01 1.34767232e-01 1.32708276e+00 1.21288626e+00 6.86065089e-01 4.60602638e-01 5.08568398e-01 1.67842966e-01 1.41521237e+00 3.19986992e-01 3.22983910e-01 1.09512341e+00 4.30477939e-01 3.35047952e-01 3.62696555e-01 1.45425564e-01 1.25442611e-01 1.01541817e+00 6.16766959e-01 3.91119110e-01 1.24767093e+00 2.56666703e-01 7.66617054e-02 7.79158742e-01 4.22313297e-01 4.74655282e-01 2.84312360e-01 3.42155732e-01 2.94489847e-01 3.80720556e-01 6.84674335e-02 6.04818481e-01 3.24625387e-01 8.52297808e-01 4.01221625e-02 5.95910675e-01 4.83541131e-01 4.95614239e-01 4.72171913e-01 9.81792485e-01 8.38979558e-01 3.14764162e-01 1.00838258e+00 5.15467432e-01 1.65390620e-01 8.57840031e-01 5.76107549e-01 3.39451521e-01 3.29105021e-01 6.27384149e-01 1.66486502e-01 4.15608199e-01 6.96100459e-01 1.92988107e-01 6.72700069e-01 0.00000000e+00 2.96045164e-01 1.45829449e-01 5.87696576e-01 1.20928878e-01 5.62583114e-01 6.95352400e-01 2.68434804e-01 5.40397051e-01 3.38763087e-01 2.29823271e-01 9.39757836e-02 2.22207445e-01 3.37284869e-01 4.09585515e-01 3.80287505e-01 1.82106432e-01 2.22793064e-01 1.82505363e-01 2.10773443e-01 4.72383419e-01 9.94944745e-02 3.51204600e-01 3.79608532e-01 1.21868292e-01 6.72357502e-02 3.81720324e-01 8.47374922e-02 1.33777766e-02 4.27815793e-01 9.93376289e-01 9.25088856e-02 7.32337086e-02 1.19604704e-01 7.08492643e-01 3.43318707e-01 2.42674542e-01 2.49874816e-01 5.16402307e-02 2.40479886e-01 5.31365909e-01 1.04145555e-01 1.68808596e-01 1.13579773e-01 6.21062167e-01 1.99828888e-01 7.23664364e-02 1.67720972e-01 4.29583804e-02 4.12708809e-01 0.00000000e+00 1.10259581e-01 2.99817837e-01 1.65572380e-01 4.71070316e-03 3.05101578e-01 8.64223926e-02 0.00000000e+00 0.00000000e+00 3.04560564e-01 1.27012504e-01 2.15654784e-01 0.00000000e+00 1.08638859e-01 1.44301965e-01 2.69167451e-01 3.72010762e-02 1.81157773e-01 4.08462885e-02 1.48798078e-01 7.59638598e-02 1.01701897e-01 0.00000000e+00 1.85194830e-01 0.00000000e+00 5.23153290e-01 1.46395707e-01 2.25432830e-01 1.03143226e-01 1.00976693e-01 1.65037500e-01 8.33930190e-02 3.30670749e-02 3.98240225e-01 0.00000000e+00 2.18618242e-03 1.33602869e-02 1.42810206e-01 2.14998212e-01 0.00000000e+00 7.49584474e-04 2.52660321e-01 2.60122955e-01 4.80765493e-02 3.18541541e-01 0.00000000e+00 8.05288658e-02 1.90610069e-02 0.00000000e+00 2.32107844e-01 6.81788364e-02 1.14246261e-01 9.63157973e-03 1.90858873e-01 1.48726660e-01 1.05551642e-01 0.00000000e+00 0.00000000e+00 0.00000000e+00 9.62298704e-02 0.00000000e+00 1.58762340e-01 7.20532700e-02 8.91625329e-02 0.00000000e+00 0.00000000e+00 1.35207400e-01 0.00000000e+00 1.60539686e-01 2.37120417e-03 0.00000000e+00 1.11523451e-01 1.55106444e-01 0.00000000e+00 0.00000000e+00 0.00000000e+00 5.77577870e-02 1.05553348e-01 0.00000000e+00 0.00000000e+00 0.00000000e+00 3.86797597e-02 0.00000000e+00 2.71453434e-01 1.94627115e-01 1.89655862e-01 0.00000000e+00 3.09408708e-03 1.68350271e-06 0.00000000e+00 1.47713418e-01 0.00000000e+00 6.10469416e-02 0.00000000e+00 0.00000000e+00 0.00000000e+00 0.00000000e+00 3.08181245e-02 0.00000000e+00 0.00000000e+00 0.00000000e+00 0.00000000e+00 9.75372049e-04 0.00000000e+00 4.37786153e-02 2.19096021e-01 2.03415509e-01 0.00000000e+00 0.00000000e+00 0.00000000e+00 0.00000000e+00 0.00000000e+00 0.00000000e+00 0.00000000e+00 0.00000000e+00 0.00000000e+00 0.00000000e+00 7.74780954e-02 4.26679841e-01 2.45399779e-01 0.00000000e+00 0.00000000e+00 0.00000000e+00 0.00000000e+00 8.29151507e-02 0.00000000e+00 0.00000000e+00 0.00000000e+00 0.00000000e+00 7.73796227e-02 0.00000000e+00 0.00000000e+00 0.00000000e+00 0.00000000e+00 8.64680892e-02 0.00000000e+00 0.00000000e+00 0.00000000e+00 0.00000000e+00 1.17666877e-01 0.00000000e+00 0.00000000e+00 0.00000000e+00 0.00000000e+00 0.00000000e+00 0.00000000e+00 0.00000000e+00 0.00000000e+00 0.00000000e+00 0.00000000e+00 0.00000000e+00 0.00000000e+00 0.00000000e+00 9.52793550e-02 0.00000000e+00 0.00000000e+00 0.00000000e+00 0.00000000e+00 0.00000000e+00 2.86133126e-03 0.00000000e+00 0.00000000e+00 0.00000000e+00 0.00000000e+00 0.00000000e+00 0.00000000e+00 8.35043495e-02 0.00000000e+00 0.00000000e+00 0.00000000e+00 0.00000000e+00 0.00000000e+00 0.00000000e+00 0.00000000e+00 0.00000000e+00 0.00000000e+00 0.00000000e+00 0.00000000e+00 0.00000000e+00 0.00000000e+00 0.00000000e+00 6.21314857e-02 0.00000000e+00 0.00000000e+00 0.00000000e+00 0.00000000e+00 0.00000000e+00 0.00000000e+00 2.83645054e-02 0.00000000e+00 0.00000000e+00 0.00000000e+00 0.00000000e+00 0.00000000e+00 0.00000000e+00 0.00000000e+00 3.77480956e-02 0.00000000e+00 0.00000000e+00 0.00000000e+00 0.00000000e+00 0.00000000e+00 0.00000000e+00 0.00000000e+00 0.00000000e+00 0.00000000e+00 0.00000000e+00 0.00000000e+00 0.00000000e+00 0.00000000e+00 0.00000000e+00 0.00000000e+00 0.00000000e+00 0.00000000e+00 0.00000000e+00 0.00000000e+00 0.00000000e+00 0.00000000e+00 0.00000000e+00 0.00000000e+00 0.00000000e+00 3.92188444e-02 0.00000000e+00 0.00000000e+00 0.00000000e+00 0.00000000e+00 0.00000000e+00 0.00000000e+00 0.00000000e+00 0.00000000e+00 0.00000000e+00 0.00000000e+00 0.00000000e+00 0.00000000e+00 0.00000000e+00 0.00000000e+00 0.00000000e+00 0.00000000e+00 0.00000000e+00 0.00000000e+00 0.00000000e+00 0.00000000e+00 0.00000000e+00 0.00000000e+00 0.00000000e+00 0.00000000e+00 0.00000000e+00 0.00000000e+00 0.00000000e+00 0.00000000e+00 0.00000000e+00 0.00000000e+00 0.00000000e+00 0.00000000e+00 0.00000000e+00 0.00000000e+00 0.00000000e+00 0.00000000e+00 0.00000000e+00 0.00000000e+00 0.00000000e+00 0.00000000e+00 0.00000000e+00 0.00000000e+00 0.00000000e+00 0.00000000e+00 0.00000000e+00 0.00000000e+00 0.00000000e+00 0.00000000e+00 0.00000000e+00 0.00000000e+00 0.00000000e+00 0.00000000e+00 0.00000000e+00 0.00000000e+00 0.00000000e+00 0.00000000e+00 0.00000000e+00 0.00000000e+00 0.00000000e+00 0.00000000e+00 0.00000000e+00 0.00000000e+00 0.00000000e+00 0.00000000e+00 0.00000000e+00 0.00000000e+00 0.00000000e+00 0.00000000e+00 0.00000000e+00 0.00000000e+00 0.00000000e+00 0.00000000e+00 0.00000000e+00 0.00000000e+00 0.00000000e+00 0.00000000e+00 0.00000000e+00 0.00000000e+00 0.00000000e+00 0.00000000e+00 0.00000000e+00 0.00000000e+00 0.00000000e+00 0.00000000e+00 0.00000000e+00 0.00000000e+00 0.00000000e+00 0.00000000e+00 0.00000000e+00 0.00000000e+00 0.00000000e+00 0.00000000e+00 0.00000000e+00 0.00000000e+00 0.00000000e+00 0.00000000e+00 0.00000000e+00 0.00000000e+00 0.00000000e+00 0.00000000e+00 0.00000000e+00 0.00000000e+00 0.00000000e+00 0.00000000e+00 0.00000000e+00 0.00000000e+00 
      </Histogram>
    </PDF>
  </MVAPdfs>
  <Weights NTrees="100" AnalysisType="0">
    <BinaryTree type="DecisionTree" boostWeight="3.9296188922440445e-01" itree="0">
      <Node pos="s" depth="0" NCoef="0" IVar="0" Cut="8.6389819335937500e+02" cType="0" res="-9.9000000000000000e+01" rms="0.0000000000000000e+00" purity="5.0000000000000000e-01" nType="0">
        <Node pos="l" depth="1" NCoef="0" IVar="8" Cut="5.7321387529373169e-01" cType="1" res="-9.9000000000000000e+01" rms="0.0000000000000000e+00" purity="6.3735735416412354e-01" nType="0">
          <Node pos="l" depth="2" NCoef="0" IVar="4" Cut="1.3353006839752197e+00" cType="1" res="-9.9000000000000000e+01" rms="0.0000000000000000e+00" purity="6.9278085231781006e-01" nType="0">
            <Node pos="l" depth="3" NCoef="0" IVar="-1" Cut="0.0000000000000000e+00" cType="1" res="-9.9000000000000000e+01" rms="0.0000000000000000e+00" purity="7.2806423902511597e-01" nType="1"/>
            <Node pos="r" depth="3" NCoef="0" IVar="-1" Cut="0.0000000000000000e+00" cType="1" res="-9.9000000000000000e+01" rms="0.0000000000000000e+00" purity="4.8986274003982544e-01" nType="-1"/>
          </Node>
          <Node pos="r" depth="2" NCoef="0" IVar="0" Cut="1.2578862304687500e+03" cType="0" res="-9.9000000000000000e+01" rms="0.0000000000000000e+00" purity="4.8544359207153320e-01" nType="0">
            <Node pos="l" depth="3" NCoef="0" IVar="-1" Cut="0.0000000000000000e+00" cType="1" res="-9.9000000000000000e+01" rms="0.0000000000000000e+00" purity="6.0746854543685913e-01" nType="1"/>
            <Node pos="r" depth="3" NCoef="0" IVar="-1" Cut="0.0000000000000000e+00" cType="1" res="-9.9000000000000000e+01" rms="0.0000000000000000e+00" purity="4.0275314450263977e-01" nType="-1"/>
          </Node>
        </Node>
        <Node pos="r" depth="1" NCoef="0" IVar="11" Cut="7.9843562841415405e-01" cType="0" res="-9.9000000000000000e+01" rms="0.0000000000000000e+00" purity="3.6749413609504700e-01" nType="0">
          <Node pos="l" depth="2" NCoef="0" IVar="10" Cut="5.5980885028839111e-01" cType="0" res="-9.9000000000000000e+01" rms="0.0000000000000000e+00" purity="4.4527316093444824e-01" nType="0">
            <Node pos="l" depth="3" NCoef="0" IVar="-1" Cut="0.0000000000000000e+00" cType="1" res="-9.9000000000000000e+01" rms="0.0000000000000000e+00" purity="5.1915329694747925e-01" nType="1"/>
            <Node pos="r" depth="3" NCoef="0" IVar="-1" Cut="0.0000000000000000e+00" cType="1" res="-9.9000000000000000e+01" rms="0.0000000000000000e+00" purity="2.9827797412872314e-01" nType="-1"/>
          </Node>
          <Node pos="r" depth="2" NCoef="0" IVar="-1" Cut="6.1057495117187500e+02" cType="0" res="-9.9000000000000000e+01" rms="0.0000000000000000e+00" purity="2.7814126014709473e-01" nType="-1"/>
        </Node>
      </Node>
    </BinaryTree>
    <BinaryTree type="DecisionTree" boostWeight="2.7367931762238806e-01" itree="1">
      <Node pos="s" depth="0" NCoef="0" IVar="0" Cut="8.5771789550781250e+02" cType="0" res="-9.9000000000000000e+01" rms="0.0000000000000000e+00" purity="5.0034087896347046e-01" nType="0">
        <Node pos="l" depth="1" NCoef="0" IVar="4" Cut="-1.3813811540603638e+00" cType="0" res="-9.9000000000000000e+01" rms="0.0000000000000000e+00" purity="6.0062974691390991e-01" nType="0">
          <Node pos="l" depth="2" NCoef="0" IVar="-1" Cut="3.1264853477478027e+00" cType="0" res="-9.9000000000000000e+01" rms="0.0000000000000000e+00" purity="6.3308441638946533e-01" nType="1"/>
          <Node pos="r" depth="2" NCoef="0" IVar="-1" Cut="0.0000000000000000e+00" cType="1" res="-9.9000000000000000e+01" rms="0.0000000000000000e+00" purity="3.9736855030059814e-01" nType="-1"/>
        </Node>
        <Node pos="r" depth="1" NCoef="0" IVar="-1" Cut="6.1915490722656250e+02" cType="0" res="-9.9000000000000000e+01" rms="0.0000000000000000e+00" purity="4.0403243899345398e-01" nType="-1"/>
      </Node>
    </BinaryTree>
    <BinaryTree type="DecisionTree" boostWeight="1.9648210481861231e-01" itree="2">
      <Node pos="s" depth="0" NCoef="0" IVar="10" Cut="1.3645017147064209e-01" cType="0" res="-9.9000000000000000e+01" rms="0.0000000000000000e+00" purity="5.1802361011505127e-01" nType="0">
        <Node pos="l" depth="1" NCoef="0" IVar="0" Cut="1.6549732666015625e+03" cType="0" res="-9.9000000000000000e+01" rms="0.0000000000000000e+00" purity="5.4457968473434448e-01" nType="0">
          <Node pos="l" depth="2" NCoef="0" IVar="-1" Cut="0.0000000000000000e+00" cType="1" res="-9.9000000000000000e+01" rms="0.0000000000000000e+00" purity="7.1707761287689209e-01" nType="1"/>
          <Node pos="r" depth="2" NCoef="0" IVar="13" Cut="3.1264996528625488e+00" cType="0" res="-9.9000000000000000e+01" rms="0.0000000000000000e+00" purity="5.2298313379287720e-01" nType="0">
            <Node pos="l" depth="3" NCoef="0" IVar="-1" Cut="0.0000000000000000e+00" cType="1" res="-9.9000000000000000e+01" rms="0.0000000000000000e+00" purity="5.8948493003845215e-01" nType="1"/>
            <Node pos="r" depth="3" NCoef="0" IVar="-1" Cut="0.0000000000000000e+00" cType="1" res="-9.9000000000000000e+01" rms="0.0000000000000000e+00" purity="4.7374266386032104e-01" nType="-1"/>
          </Node>
        </Node>
        <Node pos="r" depth="1" NCoef="0" IVar="-1" Cut="5.5525522679090500e-02" cType="0" res="-9.9000000000000000e+01" rms="0.0000000000000000e+00" purity="3.6134186387062073e-01" nType="-1"/>
      </Node>
    </BinaryTree>
    <BinaryTree type="DecisionTree" boostWeight="2.2190598545276727e-01" itree="3">
      <Node pos="s" depth="0" NCoef="0" IVar="0" Cut="6.1915490722656250e+02" cType="0" res="-9.9000000000000000e+01" rms="0.0000000000000000e+00" purity="5.2955657243728638e-01" nType="0">
        <Node pos="l" depth="1" NCoef="0" IVar="4" Cut="1.5657682418823242e+00" cType="1" res="-9.9000000000000000e+01" rms="0.0000000000000000e+00" purity="5.5893570184707642e-01" nType="0">
          <Node pos="l" depth="2" NCoef="0" IVar="4" Cut="-9.0815359354019165e-01" cType="0" res="-9.9000000000000000e+01" rms="0.0000000000000000e+00" purity="5.7903307676315308e-01" nType="0">
            <Node pos="l" depth="3" NCoef="0" IVar="-1" Cut="0.0000000000000000e+00" cType="1" res="-9.9000000000000000e+01" rms="0.0000000000000000e+00" purity="6.1742657423019409e-01" nType="1"/>
            <Node pos="r" depth="3" NCoef="0" IVar="-1" Cut="0.0000000000000000e+00" cType="1" res="-9.9000000000000000e+01" rms="0.0000000000000000e+00" purity="4.7721156477928162e-01" nType="-1"/>
          </Node>
          <Node pos="r" depth="2" NCoef="0" IVar="-1" Cut="0.0000000000000000e+00" cType="1" res="-9.9000000000000000e+01" rms="0.0000000000000000e+00" purity="4.0143105387687683e-01" nType="-1"/>
        </Node>
        <Node pos="r" depth="1" NCoef="0" IVar="5" Cut="1.3472012281417847e+00" cType="0" res="-9.9000000000000000e+01" rms="0.0000000000000000e+00" purity="4.2106872797012329e-01" nType="0">
          <Node pos="l" depth="2" NCoef="0" IVar="0" Cut="5.5391815185546875e+02" cType="0" res="-9.9000000000000000e+01" rms="0.0000000000000000e+00" purity="4.6893167495727539e-01" nType="0">
            <Node pos="l" depth="3" NCoef="0" IVar="-1" Cut="0.0000000000000000e+00" cType="1" res="-9.9000000000000000e+01" rms="0.0000000000000000e+00" purity="5.1362925767898560e-01" nType="1"/>
            <Node pos="r" depth="3" NCoef="0" IVar="-1" Cut="0.0000000000000000e+00" cType="1" res="-9.9000000000000000e+01" rms="0.0000000000000000e+00" purity="4.1539505124092102e-01" nType="-1"/>
          </Node>
          <Node pos="r" depth="2" NCoef="0" IVar="-1" Cut="0.0000000000000000e+00" cType="1" res="-9.9000000000000000e+01" rms="0.0000000000000000e+00" purity="3.4315398335456848e-01" nType="-1"/>
        </Node>
      </Node>
    </BinaryTree>
    <BinaryTree type="DecisionTree" boostWeight="1.6580450727191332e-01" itree="4">
      <Node pos="s" depth="0" NCoef="0" IVar="10" Cut="7.7702760696411133e-02" cType="0" res="-9.9000000000000000e+01" rms="0.0000000000000000e+00" purity="5.2299314737319946e-01" nType="0">
        <Node pos="l" depth="1" NCoef="0" IVar="0" Cut="2.2395190429687500e+03" cType="0" res="-9.9000000000000000e+01" rms="0.0000000000000000e+00" purity="5.4070425033569336e-01" nType="0">
          <Node pos="l" depth="2" NCoef="0" IVar="-1" Cut="0.0000000000000000e+00" cType="1" res="-9.9000000000000000e+01" rms="0.0000000000000000e+00" purity="7.9689538478851318e-01" nType="1"/>
          <Node pos="r" depth="2" NCoef="0" IVar="11" Cut="1.2086091935634613e-01" cType="0" res="-9.9000000000000000e+01" rms="0.0000000000000000e+00" purity="5.3036743402481079e-01" nType="0">
            <Node pos="l" depth="3" NCoef="0" IVar="-1" Cut="0.0000000000000000e+00" cType="1" res="-9.9000000000000000e+01" rms="0.0000000000000000e+00" purity="5.4677546024322510e-01" nType="1"/>
            <Node pos="r" depth="3" NCoef="0" IVar="-1" Cut="0.0000000000000000e+00" cType="1" res="-9.9000000000000000e+01" rms="0.0000000000000000e+00" purity="4.0658131241798401e-01" nType="-1"/>
          </Node>
        </Node>
        <Node pos="r" depth="1" NCoef="0" IVar="-1" Cut="0.0000000000000000e+00" cType="1" res="-9.9000000000000000e+01" rms="0.0000000000000000e+00" purity="3.7250417470932007e-01" nType="-1"/>
      </Node>
    </BinaryTree>
    <BinaryTree type="DecisionTree" boostWeight="1.4088141128890755e-01" itree="5">
      <Node pos="s" depth="0" NCoef="0" IVar="0" Cut="2.2360224609375000e+03" cType="0" res="-9.9000000000000000e+01" rms="0.0000000000000000e+00" purity="4.9901527166366577e-01" nType="0">
        <Node pos="l" depth="1" NCoef="0" IVar="-1" Cut="0.0000000000000000e+00" cType="1" res="-9.9000000000000000e+01" rms="0.0000000000000000e+00" purity="7.4588763713836670e-01" nType="1"/>
        <Node pos="r" depth="1" NCoef="0" IVar="0" Cut="6.1915490722656250e+02" cType="0" res="-9.9000000000000000e+01" rms="0.0000000000000000e+00" purity="4.8952591419219971e-01" nType="0">
          <Node pos="l" depth="2" NCoef="0" IVar="4" Cut="6.3100332021713257e-01" cType="1" res="-9.9000000000000000e+01" rms="0.0000000000000000e+00" purity="5.0956666469573975e-01" nType="0">
            <Node pos="l" depth="3" NCoef="0" IVar="-1" Cut="0.0000000000000000e+00" cType="1" res="-9.9000000000000000e+01" rms="0.0000000000000000e+00" purity="5.3861498832702637e-01" nType="1"/>
            <Node pos="r" depth="3" NCoef="0" IVar="-1" Cut="0.0000000000000000e+00" cType="1" res="-9.9000000000000000e+01" rms="0.0000000000000000e+00" purity="4.4786006212234497e-01" nType="-1"/>
          </Node>
          <Node pos="r" depth="2" NCoef="0" IVar="-1" Cut="1.5118498802185059e+00" cType="1" res="-9.9000000000000000e+01" rms="0.0000000000000000e+00" purity="4.2006453871726990e-01" nType="-1"/>
        </Node>
      </Node>
    </BinaryTree>
    <BinaryTree type="DecisionTree" boostWeight="1.3329754057300622e-01" itree="6">
      <Node pos="s" depth="0" NCoef="0" IVar="0" Cut="2.2395190429687500e+03" cType="0" res="-9.9000000000000000e+01" rms="0.0000000000000000e+00" purity="4.9696823954582214e-01" nType="0">
        <Node pos="l" depth="1" NCoef="0" IVar="-1" Cut="0.0000000000000000e+00" cType="1" res="-9.9000000000000000e+01" rms="0.0000000000000000e+00" purity="7.1719342470169067e-01" nType="1"/>
        <Node pos="r" depth="1" NCoef="0" IVar="10" Cut="8.1354427337646484e-01" cType="0" res="-9.9000000000000000e+01" rms="0.0000000000000000e+00" purity="4.8878693580627441e-01" nType="0">
          <Node pos="l" depth="2" NCoef="0" IVar="12" Cut="2.2688744068145752e+00" cType="1" res="-9.9000000000000000e+01" rms="0.0000000000000000e+00" purity="5.1996761560440063e-01" nType="0">
            <Node pos="l" depth="3" NCoef="0" IVar="-1" Cut="0.0000000000000000e+00" cType="1" res="-9.9000000000000000e+01" rms="0.0000000000000000e+00" purity="5.4201030731201172e-01" nType="1"/>
            <Node pos="r" depth="3" NCoef="0" IVar="-1" Cut="0.0000000000000000e+00" cType="1" res="-9.9000000000000000e+01" rms="0.0000000000000000e+00" purity="4.3905785679817200e-01" nType="-1"/>
          </Node>
          <Node pos="r" depth="2" NCoef="0" IVar="-1" Cut="5.1514708995819092e-01" cType="1" res="-9.9000000000000000e+01" rms="0.0000000000000000e+00" purity="4.4629037380218506e-01" nType="-1"/>
        </Node>
      </Node>
    </BinaryTree>
    <BinaryTree type="DecisionTree" boostWeight="9.0979474805416793e-02" itree="7">
      <Node pos="s" depth="0" NCoef="0" IVar="9" Cut="5.2921903133392334e-01" cType="1" res="-9.9000000000000000e+01" rms="0.0000000000000000e+00" purity="4.9987170100212097e-01" nType="0">
        <Node pos="l" depth="1" NCoef="0" IVar="-1" Cut="1.4424710693359375e+03" cType="0" res="-9.9000000000000000e+01" rms="0.0000000000000000e+00" purity="5.4193776845932007e-01" nType="1"/>
        <Node pos="r" depth="1" NCoef="0" IVar="-1" Cut="5.1539506763219833e-02" cType="0" res="-9.9000000000000000e+01" rms="0.0000000000000000e+00" purity="4.6551468968391418e-01" nType="-1"/>
      </Node>
    </BinaryTree>
    <BinaryTree type="DecisionTree" boostWeight="6.3163745123318210e-02" itree="8">
      <Node pos="s" depth="0" NCoef="0" IVar="0" Cut="2.2395190429687500e+03" cType="0" res="-9.9000000000000000e+01" rms="0.0000000000000000e+00" purity="5.0287729501724243e-01" nType="0">
        <Node pos="l" depth="1" NCoef="0" IVar="-1" Cut="0.0000000000000000e+00" cType="1" res="-9.9000000000000000e+01" rms="0.0000000000000000e+00" purity="6.8489408493041992e-01" nType="1"/>
        <Node pos="r" depth="1" NCoef="0" IVar="2" Cut="7.6699268817901611e-01" cType="1" res="-9.9000000000000000e+01" rms="0.0000000000000000e+00" purity="4.9633207917213440e-01" nType="0">
          <Node pos="l" depth="2" NCoef="0" IVar="-1" Cut="9.5051616430282593e-01" cType="0" res="-9.9000000000000000e+01" rms="0.0000000000000000e+00" purity="5.6575083732604980e-01" nType="1"/>
          <Node pos="r" depth="2" NCoef="0" IVar="-1" Cut="-1.5399956703186035e+00" cType="0" res="-9.9000000000000000e+01" rms="0.0000000000000000e+00" purity="4.8607918620109558e-01" nType="-1"/>
        </Node>
      </Node>
    </BinaryTree>
    <BinaryTree type="DecisionTree" boostWeight="9.0006190980432346e-02" itree="9">
      <Node pos="s" depth="0" NCoef="0" IVar="0" Cut="1.6866613769531250e+03" cType="0" res="-9.9000000000000000e+01" rms="0.0000000000000000e+00" purity="5.1444655656814575e-01" nType="0">
        <Node pos="l" depth="1" NCoef="0" IVar="-1" Cut="0.0000000000000000e+00" cType="1" res="-9.9000000000000000e+01" rms="0.0000000000000000e+00" purity="6.1130023002624512e-01" nType="1"/>
        <Node pos="r" depth="1" NCoef="0" IVar="4" Cut="-1.5399956703186035e+00" cType="0" res="-9.9000000000000000e+01" rms="0.0000000000000000e+00" purity="5.0456506013870239e-01" nType="0">
          <Node pos="l" depth="2" NCoef="0" IVar="14" Cut="1.0629733886718750e+03" cType="1" res="-9.9000000000000000e+01" rms="0.0000000000000000e+00" purity="5.1352787017822266e-01" nType="0">
            <Node pos="l" depth="3" NCoef="0" IVar="-1" Cut="0.0000000000000000e+00" cType="1" res="-9.9000000000000000e+01" rms="0.0000000000000000e+00" purity="5.2103608846664429e-01" nType="1"/>
            <Node pos="r" depth="3" NCoef="0" IVar="-1" Cut="0.0000000000000000e+00" cType="1" res="-9.9000000000000000e+01" rms="0.0000000000000000e+00" purity="4.2665198445320129e-01" nType="-1"/>
          </Node>
          <Node pos="r" depth="2" NCoef="0" IVar="-1" Cut="0.0000000000000000e+00" cType="1" res="-9.9000000000000000e+01" rms="0.0000000000000000e+00" purity="4.3213212490081787e-01" nType="-1"/>
        </Node>
      </Node>
    </BinaryTree>
    <BinaryTree type="DecisionTree" boostWeight="1.2709052650829294e-01" itree="10">
      <Node pos="s" depth="0" NCoef="0" IVar="0" Cut="1.0656418457031250e+03" cType="0" res="-9.9000000000000000e+01" rms="0.0000000000000000e+00" purity="4.9947923421859741e-01" nType="0">
        <Node pos="l" depth="1" NCoef="0" IVar="2" Cut="3.0849082469940186e+00" cType="0" res="-9.9000000000000000e+01" rms="0.0000000000000000e+00" purity="5.4264551401138306e-01" nType="0">
          <Node pos="l" depth="2" NCoef="0" IVar="-1" Cut="2.1491166992187500e+03" cType="0" res="-9.9000000000000000e+01" rms="0.0000000000000000e+00" purity="5.9179574251174927e-01" nType="1"/>
          <Node pos="r" depth="2" NCoef="0" IVar="10" Cut="9.5041418075561523e-01" cType="0" res="-9.9000000000000000e+01" rms="0.0000000000000000e+00" purity="4.6133050322532654e-01" nType="0">
            <Node pos="l" depth="3" NCoef="0" IVar="-1" Cut="0.0000000000000000e+00" cType="1" res="-9.9000000000000000e+01" rms="0.0000000000000000e+00" purity="5.2932894229888916e-01" nType="1"/>
            <Node pos="r" depth="3" NCoef="0" IVar="-1" Cut="0.0000000000000000e+00" cType="1" res="-9.9000000000000000e+01" rms="0.0000000000000000e+00" purity="4.1310551762580872e-01" nType="-1"/>
          </Node>
        </Node>
        <Node pos="r" depth="1" NCoef="0" IVar="2" Cut="1.5082299709320068e+00" cType="1" res="-9.9000000000000000e+01" rms="0.0000000000000000e+00" purity="4.8004198074340820e-01" nType="0">
          <Node pos="l" depth="2" NCoef="0" IVar="15" Cut="7.0633202791213989e-01" cType="0" res="-9.9000000000000000e+01" rms="0.0000000000000000e+00" purity="5.2429080009460449e-01" nType="0">
            <Node pos="l" depth="3" NCoef="0" IVar="-1" Cut="0.0000000000000000e+00" cType="1" res="-9.9000000000000000e+01" rms="0.0000000000000000e+00" purity="5.5293673276901245e-01" nType="1"/>
            <Node pos="r" depth="3" NCoef="0" IVar="-1" Cut="0.0000000000000000e+00" cType="1" res="-9.9000000000000000e+01" rms="0.0000000000000000e+00" purity="4.7606864571571350e-01" nType="-1"/>
          </Node>
          <Node pos="r" depth="2" NCoef="0" IVar="-1" Cut="1.1976552009582520e+00" cType="1" res="-9.9000000000000000e+01" rms="0.0000000000000000e+00" purity="4.6083447337150574e-01" nType="-1"/>
        </Node>
      </Node>
    </BinaryTree>
    <BinaryTree type="DecisionTree" boostWeight="1.0175056927332056e-01" itree="11">
      <Node pos="s" depth="0" NCoef="0" IVar="15" Cut="7.7116531133651733e-01" cType="1" res="-9.9000000000000000e+01" rms="0.0000000000000000e+00" purity="5.0852781534194946e-01" nType="0">
        <Node pos="l" depth="1" NCoef="0" IVar="2" Cut="3.1347029209136963e+00" cType="0" res="-9.9000000000000000e+01" rms="0.0000000000000000e+00" purity="5.3628641366958618e-01" nType="0">
          <Node pos="l" depth="2" NCoef="0" IVar="-1" Cut="2.9443459510803223e+00" cType="0" res="-9.9000000000000000e+01" rms="0.0000000000000000e+00" purity="5.8980935811996460e-01" nType="1"/>
          <Node pos="r" depth="2" NCoef="0" IVar="7" Cut="3.4091690063476562e+01" cType="1" res="-9.9000000000000000e+01" rms="0.0000000000000000e+00" purity="5.0683873891830444e-01" nType="0">
            <Node pos="l" depth="3" NCoef="0" IVar="-1" Cut="0.0000000000000000e+00" cType="1" res="-9.9000000000000000e+01" rms="0.0000000000000000e+00" purity="5.7624369859695435e-01" nType="1"/>
            <Node pos="r" depth="3" NCoef="0" IVar="-1" Cut="0.0000000000000000e+00" cType="1" res="-9.9000000000000000e+01" rms="0.0000000000000000e+00" purity="4.8758342862129211e-01" nType="-1"/>
          </Node>
        </Node>
        <Node pos="r" depth="1" NCoef="0" IVar="4" Cut="1.2663309574127197e+00" cType="1" res="-9.9000000000000000e+01" rms="0.0000000000000000e+00" purity="4.8420399427413940e-01" nType="0">
          <Node pos="l" depth="2" NCoef="0" IVar="12" Cut="3.9996233582496643e-01" cType="1" res="-9.9000000000000000e+01" rms="0.0000000000000000e+00" purity="4.9727025628089905e-01" nType="0">
            <Node pos="l" depth="3" NCoef="0" IVar="-1" Cut="0.0000000000000000e+00" cType="1" res="-9.9000000000000000e+01" rms="0.0000000000000000e+00" purity="5.4671370983123779e-01" nType="1"/>
            <Node pos="r" depth="3" NCoef="0" IVar="-1" Cut="0.0000000000000000e+00" cType="1" res="-9.9000000000000000e+01" rms="0.0000000000000000e+00" purity="4.7934931516647339e-01" nType="-1"/>
          </Node>
          <Node pos="r" depth="2" NCoef="0" IVar="-1" Cut="0.0000000000000000e+00" cType="1" res="-9.9000000000000000e+01" rms="0.0000000000000000e+00" purity="4.1766256093978882e-01" nType="-1"/>
        </Node>
      </Node>
    </BinaryTree>
    <BinaryTree type="DecisionTree" boostWeight="6.4825712125383197e-02" itree="12">
      <Node pos="s" depth="0" NCoef="0" IVar="8" Cut="6.1199027299880981e-01" cType="1" res="-9.9000000000000000e+01" rms="0.0000000000000000e+00" purity="5.1700413227081299e-01" nType="0">
        <Node pos="l" depth="1" NCoef="0" IVar="-1" Cut="2.2395190429687500e+03" cType="0" res="-9.9000000000000000e+01" rms="0.0000000000000000e+00" purity="5.2391654253005981e-01" nType="1"/>
        <Node pos="r" depth="1" NCoef="0" IVar="-1" Cut="0.0000000000000000e+00" cType="1" res="-9.9000000000000000e+01" rms="0.0000000000000000e+00" purity="4.3791335821151733e-01" nType="-1"/>
      </Node>
    </BinaryTree>
    <BinaryTree type="DecisionTree" boostWeight="7.1022895107256803e-02" itree="13">
      <Node pos="s" depth="0" NCoef="0" IVar="4" Cut="1.8635184764862061e+00" cType="1" res="-9.9000000000000000e+01" rms="0.0000000000000000e+00" purity="5.0341945886611938e-01" nType="0">
        <Node pos="l" depth="1" NCoef="0" IVar="0" Cut="2.2395190429687500e+03" cType="0" res="-9.9000000000000000e+01" rms="0.0000000000000000e+00" purity="5.0941365957260132e-01" nType="0">
          <Node pos="l" depth="2" NCoef="0" IVar="-1" Cut="0.0000000000000000e+00" cType="1" res="-9.9000000000000000e+01" rms="0.0000000000000000e+00" purity="6.4514243602752686e-01" nType="1"/>
          <Node pos="r" depth="2" NCoef="0" IVar="4" Cut="-6.6619884967803955e-01" cType="0" res="-9.9000000000000000e+01" rms="0.0000000000000000e+00" purity="5.0495451688766479e-01" nType="0">
            <Node pos="l" depth="3" NCoef="0" IVar="-1" Cut="0.0000000000000000e+00" cType="1" res="-9.9000000000000000e+01" rms="0.0000000000000000e+00" purity="5.2033245563507080e-01" nType="1"/>
            <Node pos="r" depth="3" NCoef="0" IVar="-1" Cut="0.0000000000000000e+00" cType="1" res="-9.9000000000000000e+01" rms="0.0000000000000000e+00" purity="4.7430825233459473e-01" nType="-1"/>
          </Node>
        </Node>
        <Node pos="r" depth="1" NCoef="0" IVar="-1" Cut="0.0000000000000000e+00" cType="1" res="-9.9000000000000000e+01" rms="0.0000000000000000e+00" purity="4.2345517873764038e-01" nType="-1"/>
      </Node>
    </BinaryTree>
    <BinaryTree type="DecisionTree" boostWeight="7.7769402796450185e-02" itree="14">
      <Node pos="s" depth="0" NCoef="0" IVar="8" Cut="4.3017038702964783e-01" cType="1" res="-9.9000000000000000e+01" rms="0.0000000000000000e+00" purity="4.9899265170097351e-01" nType="0">
        <Node pos="l" depth="1" NCoef="0" IVar="-1" Cut="0.0000000000000000e+00" cType="1" res="-9.9000000000000000e+01" rms="0.0000000000000000e+00" purity="5.6481784582138062e-01" nType="1"/>
        <Node pos="r" depth="1" NCoef="0" IVar="4" Cut="1.0981599092483521e+00" cType="1" res="-9.9000000000000000e+01" rms="0.0000000000000000e+00" purity="4.9181419610977173e-01" nType="0">
          <Node pos="l" depth="2" NCoef="0" IVar="14" Cut="1.0820634765625000e+03" cType="1" res="-9.9000000000000000e+01" rms="0.0000000000000000e+00" purity="5.0233983993530273e-01" nType="0">
            <Node pos="l" depth="3" NCoef="0" IVar="-1" Cut="0.0000000000000000e+00" cType="1" res="-9.9000000000000000e+01" rms="0.0000000000000000e+00" purity="5.1247107982635498e-01" nType="1"/>
            <Node pos="r" depth="3" NCoef="0" IVar="-1" Cut="0.0000000000000000e+00" cType="1" res="-9.9000000000000000e+01" rms="0.0000000000000000e+00" purity="4.0333446860313416e-01" nType="-1"/>
          </Node>
          <Node pos="r" depth="2" NCoef="0" IVar="5" Cut="1.7987924814224243e+00" cType="0" res="-9.9000000000000000e+01" rms="0.0000000000000000e+00" purity="4.4788727164268494e-01" nType="0">
            <Node pos="l" depth="3" NCoef="0" IVar="-1" Cut="0.0000000000000000e+00" cType="1" res="-9.9000000000000000e+01" rms="0.0000000000000000e+00" purity="5.1496165990829468e-01" nType="1"/>
            <Node pos="r" depth="3" NCoef="0" IVar="-1" Cut="0.0000000000000000e+00" cType="1" res="-9.9000000000000000e+01" rms="0.0000000000000000e+00" purity="4.0099102258682251e-01" nType="-1"/>
          </Node>
        </Node>
      </Node>
    </BinaryTree>
    <BinaryTree type="DecisionTree" boostWeight="8.2508708743427348e-02" itree="15">
      <Node pos="s" depth="0" NCoef="0" IVar="0" Cut="2.2395190429687500e+03" cType="0" res="-9.9000000000000000e+01" rms="0.0000000000000000e+00" purity="4.8622304201126099e-01" nType="0">
        <Node pos="l" depth="1" NCoef="0" IVar="-1" Cut="0.0000000000000000e+00" cType="1" res="-9.9000000000000000e+01" rms="0.0000000000000000e+00" purity="5.9871113300323486e-01" nType="1"/>
        <Node pos="r" depth="1" NCoef="0" IVar="15" Cut="8.0835163593292236e-01" cType="1" res="-9.9000000000000000e+01" rms="0.0000000000000000e+00" purity="4.8247867822647095e-01" nType="0">
          <Node pos="l" depth="2" NCoef="0" IVar="7" Cut="1.0492088317871094e+02" cType="1" res="-9.9000000000000000e+01" rms="0.0000000000000000e+00" purity="4.9985095858573914e-01" nType="0">
            <Node pos="l" depth="3" NCoef="0" IVar="-1" Cut="0.0000000000000000e+00" cType="1" res="-9.9000000000000000e+01" rms="0.0000000000000000e+00" purity="5.1871269941329956e-01" nType="1"/>
            <Node pos="r" depth="3" NCoef="0" IVar="-1" Cut="0.0000000000000000e+00" cType="1" res="-9.9000000000000000e+01" rms="0.0000000000000000e+00" purity="4.5266547799110413e-01" nType="-1"/>
          </Node>
          <Node pos="r" depth="2" NCoef="0" IVar="-1" Cut="4.4019116210937500e+02" cType="0" res="-9.9000000000000000e+01" rms="0.0000000000000000e+00" purity="4.6139153838157654e-01" nType="-1"/>
        </Node>
      </Node>
    </BinaryTree>
    <BinaryTree type="DecisionTree" boostWeight="8.5699716977845633e-02" itree="16">
      <Node pos="s" depth="0" NCoef="0" IVar="8" Cut="5.0168633460998535e-01" cType="1" res="-9.9000000000000000e+01" rms="0.0000000000000000e+00" purity="4.9030980467796326e-01" nType="0">
        <Node pos="l" depth="1" NCoef="0" IVar="0" Cut="1.4333720703125000e+03" cType="0" res="-9.9000000000000000e+01" rms="0.0000000000000000e+00" purity="5.2080374956130981e-01" nType="0">
          <Node pos="l" depth="2" NCoef="0" IVar="-1" Cut="0.0000000000000000e+00" cType="1" res="-9.9000000000000000e+01" rms="0.0000000000000000e+00" purity="6.0748362541198730e-01" nType="1"/>
          <Node pos="r" depth="2" NCoef="0" IVar="12" Cut="7.3262161016464233e-01" cType="1" res="-9.9000000000000000e+01" rms="0.0000000000000000e+00" purity="5.0218933820724487e-01" nType="0">
            <Node pos="l" depth="3" NCoef="0" IVar="-1" Cut="0.0000000000000000e+00" cType="1" res="-9.9000000000000000e+01" rms="0.0000000000000000e+00" purity="5.6109237670898438e-01" nType="1"/>
            <Node pos="r" depth="3" NCoef="0" IVar="-1" Cut="0.0000000000000000e+00" cType="1" res="-9.9000000000000000e+01" rms="0.0000000000000000e+00" purity="4.8283028602600098e-01" nType="-1"/>
          </Node>
        </Node>
        <Node pos="r" depth="1" NCoef="0" IVar="7" Cut="1.9240447998046875e+01" cType="1" res="-9.9000000000000000e+01" rms="0.0000000000000000e+00" purity="4.7709360718727112e-01" nType="0">
          <Node pos="l" depth="2" NCoef="0" IVar="-1" Cut="0.0000000000000000e+00" cType="1" res="-9.9000000000000000e+01" rms="0.0000000000000000e+00" purity="5.4726278781890869e-01" nType="1"/>
          <Node pos="r" depth="2" NCoef="0" IVar="-1" Cut="5.5525522679090500e-02" cType="0" res="-9.9000000000000000e+01" rms="0.0000000000000000e+00" purity="4.6883523464202881e-01" nType="-1"/>
        </Node>
      </Node>
    </BinaryTree>
    <BinaryTree type="DecisionTree" boostWeight="6.8958124276430485e-02" itree="17">
      <Node pos="s" depth="0" NCoef="0" IVar="0" Cut="5.3036901855468750e+02" cType="0" res="-9.9000000000000000e+01" rms="0.0000000000000000e+00" purity="5.0418770313262939e-01" nType="0">
        <Node pos="l" depth="1" NCoef="0" IVar="9" Cut="5.6303250789642334e-01" cType="1" res="-9.9000000000000000e+01" rms="0.0000000000000000e+00" purity="5.0873720645904541e-01" nType="0">
          <Node pos="l" depth="2" NCoef="0" IVar="-1" Cut="6.5823686122894287e-01" cType="1" res="-9.9000000000000000e+01" rms="0.0000000000000000e+00" purity="5.2224171161651611e-01" nType="1"/>
          <Node pos="r" depth="2" NCoef="0" IVar="0" Cut="8.6709448242187500e+02" cType="1" res="-9.9000000000000000e+01" rms="0.0000000000000000e+00" purity="4.8284184932708740e-01" nType="0">
            <Node pos="l" depth="3" NCoef="0" IVar="-1" Cut="0.0000000000000000e+00" cType="1" res="-9.9000000000000000e+01" rms="0.0000000000000000e+00" purity="5.1439768075942993e-01" nType="1"/>
            <Node pos="r" depth="3" NCoef="0" IVar="-1" Cut="0.0000000000000000e+00" cType="1" res="-9.9000000000000000e+01" rms="0.0000000000000000e+00" purity="4.4168278574943542e-01" nType="-1"/>
          </Node>
        </Node>
        <Node pos="r" depth="1" NCoef="0" IVar="-1" Cut="0.0000000000000000e+00" cType="1" res="-9.9000000000000000e+01" rms="0.0000000000000000e+00" purity="4.2683935165405273e-01" nType="-1"/>
      </Node>
    </BinaryTree>
    <BinaryTree type="DecisionTree" boostWeight="5.3797528689518821e-02" itree="18">
      <Node pos="s" depth="0" NCoef="0" IVar="8" Cut="4.3017038702964783e-01" cType="1" res="-9.9000000000000000e+01" rms="0.0000000000000000e+00" purity="4.9376636743545532e-01" nType="0">
        <Node pos="l" depth="1" NCoef="0" IVar="-1" Cut="0.0000000000000000e+00" cType="1" res="-9.9000000000000000e+01" rms="0.0000000000000000e+00" purity="5.4621738195419312e-01" nType="1"/>
        <Node pos="r" depth="1" NCoef="0" IVar="10" Cut="4.4318001717329025e-02" cType="0" res="-9.9000000000000000e+01" rms="0.0000000000000000e+00" purity="4.8808500170707703e-01" nType="0">
          <Node pos="l" depth="2" NCoef="0" IVar="4" Cut="3.2800394296646118e-01" cType="1" res="-9.9000000000000000e+01" rms="0.0000000000000000e+00" purity="4.9276012182235718e-01" nType="0">
            <Node pos="l" depth="3" NCoef="0" IVar="-1" Cut="0.0000000000000000e+00" cType="1" res="-9.9000000000000000e+01" rms="0.0000000000000000e+00" purity="5.0712883472442627e-01" nType="1"/>
            <Node pos="r" depth="3" NCoef="0" IVar="-1" Cut="0.0000000000000000e+00" cType="1" res="-9.9000000000000000e+01" rms="0.0000000000000000e+00" purity="4.7149917483329773e-01" nType="-1"/>
          </Node>
          <Node pos="r" depth="2" NCoef="0" IVar="-1" Cut="0.0000000000000000e+00" cType="1" res="-9.9000000000000000e+01" rms="0.0000000000000000e+00" purity="4.2668768763542175e-01" nType="-1"/>
        </Node>
      </Node>
    </BinaryTree>
    <BinaryTree type="DecisionTree" boostWeight="3.5171593298685230e-02" itree="19">
      <Node pos="s" depth="0" NCoef="0" IVar="4" Cut="-1.9407517910003662e+00" cType="0" res="-9.9000000000000000e+01" rms="0.0000000000000000e+00" purity="4.9124696850776672e-01" nType="0">
        <Node pos="l" depth="1" NCoef="0" IVar="0" Cut="2.2395190429687500e+03" cType="0" res="-9.9000000000000000e+01" rms="0.0000000000000000e+00" purity="4.9526968598365784e-01" nType="0">
          <Node pos="l" depth="2" NCoef="0" IVar="-1" Cut="0.0000000000000000e+00" cType="1" res="-9.9000000000000000e+01" rms="0.0000000000000000e+00" purity="6.0310202836990356e-01" nType="1"/>
          <Node pos="r" depth="2" NCoef="0" IVar="-1" Cut="5.1378384232521057e-02" cType="0" res="-9.9000000000000000e+01" rms="0.0000000000000000e+00" purity="4.9189025163650513e-01" nType="-1"/>
        </Node>
        <Node pos="r" depth="1" NCoef="0" IVar="-1" Cut="0.0000000000000000e+00" cType="1" res="-9.9000000000000000e+01" rms="0.0000000000000000e+00" purity="4.2684391140937805e-01" nType="-1"/>
      </Node>
    </BinaryTree>
    <BinaryTree type="DecisionTree" boostWeight="6.0179634203209938e-02" itree="20">
      <Node pos="s" depth="0" NCoef="0" IVar="4" Cut="-1.9407517910003662e+00" cType="0" res="-9.9000000000000000e+01" rms="0.0000000000000000e+00" purity="4.9977219104766846e-01" nType="0">
        <Node pos="l" depth="1" NCoef="0" IVar="11" Cut="4.8184420913457870e-02" cType="0" res="-9.9000000000000000e+01" rms="0.0000000000000000e+00" purity="5.0377148389816284e-01" nType="0">
          <Node pos="l" depth="2" NCoef="0" IVar="0" Cut="6.9538049316406250e+02" cType="0" res="-9.9000000000000000e+01" rms="0.0000000000000000e+00" purity="5.0843614339828491e-01" nType="0">
            <Node pos="l" depth="3" NCoef="0" IVar="-1" Cut="0.0000000000000000e+00" cType="1" res="-9.9000000000000000e+01" rms="0.0000000000000000e+00" purity="5.2117842435836792e-01" nType="1"/>
            <Node pos="r" depth="3" NCoef="0" IVar="-1" Cut="0.0000000000000000e+00" cType="1" res="-9.9000000000000000e+01" rms="0.0000000000000000e+00" purity="4.8333153128623962e-01" nType="-1"/>
          </Node>
          <Node pos="r" depth="2" NCoef="0" IVar="-1" Cut="0.0000000000000000e+00" cType="1" res="-9.9000000000000000e+01" rms="0.0000000000000000e+00" purity="4.3238604068756104e-01" nType="-1"/>
        </Node>
        <Node pos="r" depth="1" NCoef="0" IVar="-1" Cut="0.0000000000000000e+00" cType="1" res="-9.9000000000000000e+01" rms="0.0000000000000000e+00" purity="4.3558469414710999e-01" nType="-1"/>
      </Node>
    </BinaryTree>
    <BinaryTree type="DecisionTree" boostWeight="5.0431422631026006e-02" itree="21">
      <Node pos="s" depth="0" NCoef="0" IVar="2" Cut="7.6526069641113281e-01" cType="1" res="-9.9000000000000000e+01" rms="0.0000000000000000e+00" purity="4.9730819463729858e-01" nType="0">
        <Node pos="l" depth="1" NCoef="0" IVar="-1" Cut="9.5051616430282593e-01" cType="0" res="-9.9000000000000000e+01" rms="0.0000000000000000e+00" purity="5.3992176055908203e-01" nType="1"/>
        <Node pos="r" depth="1" NCoef="0" IVar="13" Cut="2.9448058605194092e+00" cType="0" res="-9.9000000000000000e+01" rms="0.0000000000000000e+00" purity="4.9115455150604248e-01" nType="0">
          <Node pos="l" depth="2" NCoef="0" IVar="-1" Cut="1.8232292480468750e+03" cType="0" res="-9.9000000000000000e+01" rms="0.0000000000000000e+00" purity="5.1013618707656860e-01" nType="1"/>
          <Node pos="r" depth="2" NCoef="0" IVar="-1" Cut="-2.7488148212432861e+00" cType="0" res="-9.9000000000000000e+01" rms="0.0000000000000000e+00" purity="4.7466841340065002e-01" nType="-1"/>
        </Node>
      </Node>
    </BinaryTree>
    <BinaryTree type="DecisionTree" boostWeight="6.2167359715827042e-02" itree="22">
      <Node pos="s" depth="0" NCoef="0" IVar="5" Cut="1.2331192493438721e+00" cType="0" res="-9.9000000000000000e+01" rms="0.0000000000000000e+00" purity="4.9660623073577881e-01" nType="0">
        <Node pos="l" depth="1" NCoef="0" IVar="3" Cut="-2.7500839233398438e+00" cType="0" res="-9.9000000000000000e+01" rms="0.0000000000000000e+00" purity="5.0468951463699341e-01" nType="0">
          <Node pos="l" depth="2" NCoef="0" IVar="-1" Cut="4.1053142547607422e+00" cType="0" res="-9.9000000000000000e+01" rms="0.0000000000000000e+00" purity="5.1293241977691650e-01" nType="1"/>
          <Node pos="r" depth="2" NCoef="0" IVar="13" Cut="2.7596011161804199e+00" cType="0" res="-9.9000000000000000e+01" rms="0.0000000000000000e+00" purity="4.6780183911323547e-01" nType="0">
            <Node pos="l" depth="3" NCoef="0" IVar="-1" Cut="0.0000000000000000e+00" cType="1" res="-9.9000000000000000e+01" rms="0.0000000000000000e+00" purity="5.1877295970916748e-01" nType="1"/>
            <Node pos="r" depth="3" NCoef="0" IVar="-1" Cut="0.0000000000000000e+00" cType="1" res="-9.9000000000000000e+01" rms="0.0000000000000000e+00" purity="4.1700127720832825e-01" nType="-1"/>
          </Node>
        </Node>
        <Node pos="r" depth="1" NCoef="0" IVar="16" Cut="2.3701544851064682e-03" cType="0" res="-9.9000000000000000e+01" rms="0.0000000000000000e+00" purity="4.7134172916412354e-01" nType="0">
          <Node pos="l" depth="2" NCoef="0" IVar="4" Cut="4.3050047755241394e-01" cType="1" res="-9.9000000000000000e+01" rms="0.0000000000000000e+00" purity="4.9409064650535583e-01" nType="0">
            <Node pos="l" depth="3" NCoef="0" IVar="-1" Cut="0.0000000000000000e+00" cType="1" res="-9.9000000000000000e+01" rms="0.0000000000000000e+00" purity="5.2068006992340088e-01" nType="1"/>
            <Node pos="r" depth="3" NCoef="0" IVar="-1" Cut="0.0000000000000000e+00" cType="1" res="-9.9000000000000000e+01" rms="0.0000000000000000e+00" purity="4.4785496592521667e-01" nType="-1"/>
          </Node>
          <Node pos="r" depth="2" NCoef="0" IVar="-1" Cut="0.0000000000000000e+00" cType="1" res="-9.9000000000000000e+01" rms="0.0000000000000000e+00" purity="4.3590441346168518e-01" nType="-1"/>
        </Node>
      </Node>
    </BinaryTree>
    <BinaryTree type="DecisionTree" boostWeight="5.2024966217685605e-02" itree="23">
      <Node pos="s" depth="0" NCoef="0" IVar="8" Cut="4.3017038702964783e-01" cType="1" res="-9.9000000000000000e+01" rms="0.0000000000000000e+00" purity="4.8789238929748535e-01" nType="0">
        <Node pos="l" depth="1" NCoef="0" IVar="-1" Cut="0.0000000000000000e+00" cType="1" res="-9.9000000000000000e+01" rms="0.0000000000000000e+00" purity="5.3023147583007812e-01" nType="1"/>
        <Node pos="r" depth="1" NCoef="0" IVar="6" Cut="3.1238420009613037e+00" cType="0" res="-9.9000000000000000e+01" rms="0.0000000000000000e+00" purity="4.8332801461219788e-01" nType="0">
          <Node pos="l" depth="2" NCoef="0" IVar="-1" Cut="0.0000000000000000e+00" cType="1" res="-9.9000000000000000e+01" rms="0.0000000000000000e+00" purity="5.4073280096054077e-01" nType="1"/>
          <Node pos="r" depth="2" NCoef="0" IVar="-1" Cut="5.5525522679090500e-02" cType="0" res="-9.9000000000000000e+01" rms="0.0000000000000000e+00" purity="4.8031094670295715e-01" nType="-1"/>
        </Node>
      </Node>
    </BinaryTree>
    <BinaryTree type="DecisionTree" boostWeight="4.9966454211661619e-02" itree="24">
      <Node pos="s" depth="0" NCoef="0" IVar="11" Cut="4.0427553653717041e-01" cType="0" res="-9.9000000000000000e+01" rms="0.0000000000000000e+00" purity="4.9743241071701050e-01" nType="0">
        <Node pos="l" depth="1" NCoef="0" IVar="6" Cut="-3.0857839584350586e+00" cType="1" res="-9.9000000000000000e+01" rms="0.0000000000000000e+00" purity="5.0517463684082031e-01" nType="0">
          <Node pos="l" depth="2" NCoef="0" IVar="4" Cut="-1.5879726409912109e-01" cType="0" res="-9.9000000000000000e+01" rms="0.0000000000000000e+00" purity="5.4000961780548096e-01" nType="0">
            <Node pos="l" depth="3" NCoef="0" IVar="-1" Cut="0.0000000000000000e+00" cType="1" res="-9.9000000000000000e+01" rms="0.0000000000000000e+00" purity="5.7374846935272217e-01" nType="1"/>
            <Node pos="r" depth="3" NCoef="0" IVar="-1" Cut="0.0000000000000000e+00" cType="1" res="-9.9000000000000000e+01" rms="0.0000000000000000e+00" purity="4.9939697980880737e-01" nType="-1"/>
          </Node>
          <Node pos="r" depth="2" NCoef="0" IVar="10" Cut="9.9890553951263428e-01" cType="1" res="-9.9000000000000000e+01" rms="0.0000000000000000e+00" purity="4.9899703264236450e-01" nType="0">
            <Node pos="l" depth="3" NCoef="0" IVar="-1" Cut="0.0000000000000000e+00" cType="1" res="-9.9000000000000000e+01" rms="0.0000000000000000e+00" purity="5.0517755746841431e-01" nType="1"/>
            <Node pos="r" depth="3" NCoef="0" IVar="-1" Cut="0.0000000000000000e+00" cType="1" res="-9.9000000000000000e+01" rms="0.0000000000000000e+00" purity="4.4034543633460999e-01" nType="-1"/>
          </Node>
        </Node>
        <Node pos="r" depth="1" NCoef="0" IVar="7" Cut="1.1202250671386719e+02" cType="0" res="-9.9000000000000000e+01" rms="0.0000000000000000e+00" purity="4.7659623622894287e-01" nType="0">
          <Node pos="l" depth="2" NCoef="0" IVar="-1" Cut="0.0000000000000000e+00" cType="1" res="-9.9000000000000000e+01" rms="0.0000000000000000e+00" purity="5.2403503656387329e-01" nType="1"/>
          <Node pos="r" depth="2" NCoef="0" IVar="9" Cut="5.4702138900756836e-01" cType="1" res="-9.9000000000000000e+01" rms="0.0000000000000000e+00" purity="4.6215367317199707e-01" nType="0">
            <Node pos="l" depth="3" NCoef="0" IVar="-1" Cut="0.0000000000000000e+00" cType="1" res="-9.9000000000000000e+01" rms="0.0000000000000000e+00" purity="5.0497615337371826e-01" nType="1"/>
            <Node pos="r" depth="3" NCoef="0" IVar="-1" Cut="0.0000000000000000e+00" cType="1" res="-9.9000000000000000e+01" rms="0.0000000000000000e+00" purity="4.4658073782920837e-01" nType="-1"/>
          </Node>
        </Node>
      </Node>
    </BinaryTree>
    <BinaryTree type="DecisionTree" boostWeight="4.5999068982095138e-02" itree="25">
      <Node pos="s" depth="0" NCoef="0" IVar="8" Cut="5.5988562107086182e-01" cType="1" res="-9.9000000000000000e+01" rms="0.0000000000000000e+00" purity="4.9151837825775146e-01" nType="0">
        <Node pos="l" depth="1" NCoef="0" IVar="0" Cut="2.1491916503906250e+03" cType="0" res="-9.9000000000000000e+01" rms="0.0000000000000000e+00" purity="5.0163805484771729e-01" nType="0">
          <Node pos="l" depth="2" NCoef="0" IVar="-1" Cut="0.0000000000000000e+00" cType="1" res="-9.9000000000000000e+01" rms="0.0000000000000000e+00" purity="5.8891785144805908e-01" nType="1"/>
          <Node pos="r" depth="2" NCoef="0" IVar="2" Cut="4.2961606979370117e+00" cType="1" res="-9.9000000000000000e+01" rms="0.0000000000000000e+00" purity="4.9778404831886292e-01" nType="0">
            <Node pos="l" depth="3" NCoef="0" IVar="-1" Cut="0.0000000000000000e+00" cType="1" res="-9.9000000000000000e+01" rms="0.0000000000000000e+00" purity="5.0338655710220337e-01" nType="1"/>
            <Node pos="r" depth="3" NCoef="0" IVar="-1" Cut="0.0000000000000000e+00" cType="1" res="-9.9000000000000000e+01" rms="0.0000000000000000e+00" purity="4.4508528709411621e-01" nType="-1"/>
          </Node>
        </Node>
        <Node pos="r" depth="1" NCoef="0" IVar="6" Cut="-3.0851130485534668e+00" cType="1" res="-9.9000000000000000e+01" rms="0.0000000000000000e+00" purity="4.7563096880912781e-01" nType="0">
          <Node pos="l" depth="2" NCoef="0" IVar="-1" Cut="0.0000000000000000e+00" cType="1" res="-9.9000000000000000e+01" rms="0.0000000000000000e+00" purity="5.2282309532165527e-01" nType="1"/>
          <Node pos="r" depth="2" NCoef="0" IVar="-1" Cut="5.5525522679090500e-02" cType="0" res="-9.9000000000000000e+01" rms="0.0000000000000000e+00" purity="4.6790307760238647e-01" nType="-1"/>
        </Node>
      </Node>
    </BinaryTree>
    <BinaryTree type="DecisionTree" boostWeight="4.0656063903110759e-02" itree="26">
      <Node pos="s" depth="0" NCoef="0" IVar="4" Cut="-1.9407517910003662e+00" cType="0" res="-9.9000000000000000e+01" rms="0.0000000000000000e+00" purity="4.8904842138290405e-01" nType="0">
        <Node pos="l" depth="1" NCoef="0" IVar="0" Cut="2.2395190429687500e+03" cType="0" res="-9.9000000000000000e+01" rms="0.0000000000000000e+00" purity="4.9186456203460693e-01" nType="0">
          <Node pos="l" depth="2" NCoef="0" IVar="-1" Cut="0.0000000000000000e+00" cType="1" res="-9.9000000000000000e+01" rms="0.0000000000000000e+00" purity="5.7152485847473145e-01" nType="1"/>
          <Node pos="r" depth="2" NCoef="0" IVar="14" Cut="5.1984222412109375e+02" cType="1" res="-9.9000000000000000e+01" rms="0.0000000000000000e+00" purity="4.8941308259963989e-01" nType="0">
            <Node pos="l" depth="3" NCoef="0" IVar="-1" Cut="0.0000000000000000e+00" cType="1" res="-9.9000000000000000e+01" rms="0.0000000000000000e+00" purity="5.0238293409347534e-01" nType="1"/>
            <Node pos="r" depth="3" NCoef="0" IVar="-1" Cut="0.0000000000000000e+00" cType="1" res="-9.9000000000000000e+01" rms="0.0000000000000000e+00" purity="4.7877824306488037e-01" nType="-1"/>
          </Node>
        </Node>
        <Node pos="r" depth="1" NCoef="0" IVar="-1" Cut="0.0000000000000000e+00" cType="1" res="-9.9000000000000000e+01" rms="0.0000000000000000e+00" purity="4.4376394152641296e-01" nType="-1"/>
      </Node>
    </BinaryTree>
    <BinaryTree type="DecisionTree" boostWeight="6.8919395747637141e-02" itree="27">
      <Node pos="s" depth="0" NCoef="0" IVar="2" Cut="7.6526069641113281e-01" cType="1" res="-9.9000000000000000e+01" rms="0.0000000000000000e+00" purity="4.9040329456329346e-01" nType="0">
        <Node pos="l" depth="1" NCoef="0" IVar="-1" Cut="9.5051616430282593e-01" cType="0" res="-9.9000000000000000e+01" rms="0.0000000000000000e+00" purity="5.2838367223739624e-01" nType="1"/>
        <Node pos="r" depth="1" NCoef="0" IVar="4" Cut="1.1196000576019287e+00" cType="1" res="-9.9000000000000000e+01" rms="0.0000000000000000e+00" purity="4.8491388559341431e-01" nType="0">
          <Node pos="l" depth="2" NCoef="0" IVar="4" Cut="-4.7517237067222595e-01" cType="0" res="-9.9000000000000000e+01" rms="0.0000000000000000e+00" purity="4.9278995394706726e-01" nType="0">
            <Node pos="l" depth="3" NCoef="0" IVar="-1" Cut="0.0000000000000000e+00" cType="1" res="-9.9000000000000000e+01" rms="0.0000000000000000e+00" purity="5.1541900634765625e-01" nType="1"/>
            <Node pos="r" depth="3" NCoef="0" IVar="-1" Cut="0.0000000000000000e+00" cType="1" res="-9.9000000000000000e+01" rms="0.0000000000000000e+00" purity="4.6623206138610840e-01" nType="-1"/>
          </Node>
          <Node pos="r" depth="2" NCoef="0" IVar="13" Cut="2.5875337123870850e+00" cType="1" res="-9.9000000000000000e+01" rms="0.0000000000000000e+00" purity="4.5261844992637634e-01" nType="0">
            <Node pos="l" depth="3" NCoef="0" IVar="-1" Cut="0.0000000000000000e+00" cType="1" res="-9.9000000000000000e+01" rms="0.0000000000000000e+00" purity="5.0156760215759277e-01" nType="1"/>
            <Node pos="r" depth="3" NCoef="0" IVar="-1" Cut="0.0000000000000000e+00" cType="1" res="-9.9000000000000000e+01" rms="0.0000000000000000e+00" purity="4.1762274503707886e-01" nType="-1"/>
          </Node>
        </Node>
      </Node>
    </BinaryTree>
    <BinaryTree type="DecisionTree" boostWeight="5.9813424111456286e-02" itree="28">
      <Node pos="s" depth="0" NCoef="0" IVar="4" Cut="3.3138108253479004e-01" cType="1" res="-9.9000000000000000e+01" rms="0.0000000000000000e+00" purity="4.8782816529273987e-01" nType="0">
        <Node pos="l" depth="1" NCoef="0" IVar="0" Cut="1.6689388427734375e+03" cType="0" res="-9.9000000000000000e+01" rms="0.0000000000000000e+00" purity="4.9716362357139587e-01" nType="0">
          <Node pos="l" depth="2" NCoef="0" IVar="-1" Cut="0.0000000000000000e+00" cType="1" res="-9.9000000000000000e+01" rms="0.0000000000000000e+00" purity="5.5848866701126099e-01" nType="1"/>
          <Node pos="r" depth="2" NCoef="0" IVar="2" Cut="3.1813924312591553e+00" cType="1" res="-9.9000000000000000e+01" rms="0.0000000000000000e+00" purity="4.9153721332550049e-01" nType="0">
            <Node pos="l" depth="3" NCoef="0" IVar="-1" Cut="0.0000000000000000e+00" cType="1" res="-9.9000000000000000e+01" rms="0.0000000000000000e+00" purity="5.0179231166839600e-01" nType="1"/>
            <Node pos="r" depth="3" NCoef="0" IVar="-1" Cut="0.0000000000000000e+00" cType="1" res="-9.9000000000000000e+01" rms="0.0000000000000000e+00" purity="4.6928134560585022e-01" nType="-1"/>
          </Node>
        </Node>
        <Node pos="r" depth="1" NCoef="0" IVar="16" Cut="1.4608663506805897e-02" cType="0" res="-9.9000000000000000e+01" rms="0.0000000000000000e+00" purity="4.7390630841255188e-01" nType="0">
          <Node pos="l" depth="2" NCoef="0" IVar="10" Cut="7.7469074726104736e-01" cType="1" res="-9.9000000000000000e+01" rms="0.0000000000000000e+00" purity="4.9971786141395569e-01" nType="0">
            <Node pos="l" depth="3" NCoef="0" IVar="-1" Cut="0.0000000000000000e+00" cType="1" res="-9.9000000000000000e+01" rms="0.0000000000000000e+00" purity="5.3856414556503296e-01" nType="1"/>
            <Node pos="r" depth="3" NCoef="0" IVar="-1" Cut="0.0000000000000000e+00" cType="1" res="-9.9000000000000000e+01" rms="0.0000000000000000e+00" purity="4.7569024562835693e-01" nType="-1"/>
          </Node>
          <Node pos="r" depth="2" NCoef="0" IVar="-1" Cut="1.4422721862792969e+00" cType="0" res="-9.9000000000000000e+01" rms="0.0000000000000000e+00" purity="4.5148497819900513e-01" nType="-1"/>
        </Node>
      </Node>
    </BinaryTree>
    <BinaryTree type="DecisionTree" boostWeight="5.4860478744150155e-02" itree="29">
      <Node pos="s" depth="0" NCoef="0" IVar="14" Cut="1.1951750488281250e+03" cType="1" res="-9.9000000000000000e+01" rms="0.0000000000000000e+00" purity="4.8802351951599121e-01" nType="0">
        <Node pos="l" depth="1" NCoef="0" IVar="1" Cut="4.3268176269531250e+02" cType="0" res="-9.9000000000000000e+01" rms="0.0000000000000000e+00" purity="4.9111574888229370e-01" nType="0">
          <Node pos="l" depth="2" NCoef="0" IVar="-1" Cut="0.0000000000000000e+00" cType="1" res="-9.9000000000000000e+01" rms="0.0000000000000000e+00" purity="5.4123038053512573e-01" nType="1"/>
          <Node pos="r" depth="2" NCoef="0" IVar="0" Cut="2.0726752929687500e+03" cType="0" res="-9.9000000000000000e+01" rms="0.0000000000000000e+00" purity="4.8656836152076721e-01" nType="0">
            <Node pos="l" depth="3" NCoef="0" IVar="-1" Cut="0.0000000000000000e+00" cType="1" res="-9.9000000000000000e+01" rms="0.0000000000000000e+00" purity="5.8031582832336426e-01" nType="1"/>
            <Node pos="r" depth="3" NCoef="0" IVar="-1" Cut="0.0000000000000000e+00" cType="1" res="-9.9000000000000000e+01" rms="0.0000000000000000e+00" purity="4.8346164822578430e-01" nType="-1"/>
          </Node>
        </Node>
        <Node pos="r" depth="1" NCoef="0" IVar="-1" Cut="0.0000000000000000e+00" cType="1" res="-9.9000000000000000e+01" rms="0.0000000000000000e+00" purity="4.4120371341705322e-01" nType="-1"/>
      </Node>
    </BinaryTree>
    <BinaryTree type="DecisionTree" boostWeight="3.6992712293920940e-02" itree="30">
      <Node pos="s" depth="0" NCoef="0" IVar="14" Cut="1.1951750488281250e+03" cType="1" res="-9.9000000000000000e+01" rms="0.0000000000000000e+00" purity="4.9903047084808350e-01" nType="0">
        <Node pos="l" depth="1" NCoef="0" IVar="0" Cut="5.4339489746093750e+02" cType="0" res="-9.9000000000000000e+01" rms="0.0000000000000000e+00" purity="5.0192958116531372e-01" nType="0">
          <Node pos="l" depth="2" NCoef="0" IVar="10" Cut="9.9882090091705322e-01" cType="1" res="-9.9000000000000000e+01" rms="0.0000000000000000e+00" purity="5.0558513402938843e-01" nType="0">
            <Node pos="l" depth="3" NCoef="0" IVar="-1" Cut="0.0000000000000000e+00" cType="1" res="-9.9000000000000000e+01" rms="0.0000000000000000e+00" purity="5.0934237241744995e-01" nType="1"/>
            <Node pos="r" depth="3" NCoef="0" IVar="-1" Cut="0.0000000000000000e+00" cType="1" res="-9.9000000000000000e+01" rms="0.0000000000000000e+00" purity="4.7166636586189270e-01" nType="-1"/>
          </Node>
          <Node pos="r" depth="2" NCoef="0" IVar="-1" Cut="0.0000000000000000e+00" cType="1" res="-9.9000000000000000e+01" rms="0.0000000000000000e+00" purity="4.6259626746177673e-01" nType="-1"/>
        </Node>
        <Node pos="r" depth="1" NCoef="0" IVar="-1" Cut="0.0000000000000000e+00" cType="1" res="-9.9000000000000000e+01" rms="0.0000000000000000e+00" purity="4.5504814386367798e-01" nType="-1"/>
      </Node>
    </BinaryTree>
    <BinaryTree type="DecisionTree" boostWeight="5.3826347562684083e-02" itree="31">
      <Node pos="s" depth="0" NCoef="0" IVar="8" Cut="5.0168633460998535e-01" cType="1" res="-9.9000000000000000e+01" rms="0.0000000000000000e+00" purity="4.9401450157165527e-01" nType="0">
        <Node pos="l" depth="1" NCoef="0" IVar="14" Cut="3.8701538085937500e+02" cType="0" res="-9.9000000000000000e+01" rms="0.0000000000000000e+00" purity="5.1024651527404785e-01" nType="0">
          <Node pos="l" depth="2" NCoef="0" IVar="-1" Cut="5.2904659509658813e-01" cType="1" res="-9.9000000000000000e+01" rms="0.0000000000000000e+00" purity="5.2534472942352295e-01" nType="1"/>
          <Node pos="r" depth="2" NCoef="0" IVar="-1" Cut="0.0000000000000000e+00" cType="1" res="-9.9000000000000000e+01" rms="0.0000000000000000e+00" purity="4.7166880965232849e-01" nType="-1"/>
        </Node>
        <Node pos="r" depth="1" NCoef="0" IVar="10" Cut="5.5525522679090500e-02" cType="0" res="-9.9000000000000000e+01" rms="0.0000000000000000e+00" purity="4.8701548576354980e-01" nType="0">
          <Node pos="l" depth="2" NCoef="0" IVar="8" Cut="5.8080697059631348e-01" cType="0" res="-9.9000000000000000e+01" rms="0.0000000000000000e+00" purity="4.9150481820106506e-01" nType="0">
            <Node pos="l" depth="3" NCoef="0" IVar="-1" Cut="0.0000000000000000e+00" cType="1" res="-9.9000000000000000e+01" rms="0.0000000000000000e+00" purity="5.1498830318450928e-01" nType="1"/>
            <Node pos="r" depth="3" NCoef="0" IVar="-1" Cut="0.0000000000000000e+00" cType="1" res="-9.9000000000000000e+01" rms="0.0000000000000000e+00" purity="4.8182150721549988e-01" nType="-1"/>
          </Node>
          <Node pos="r" depth="2" NCoef="0" IVar="-1" Cut="0.0000000000000000e+00" cType="1" res="-9.9000000000000000e+01" rms="0.0000000000000000e+00" purity="4.5016074180603027e-01" nType="-1"/>
        </Node>
      </Node>
    </BinaryTree>
    <BinaryTree type="DecisionTree" boostWeight="3.1794292002854503e-02" itree="32">
      <Node pos="s" depth="0" NCoef="0" IVar="9" Cut="6.1159479618072510e-01" cType="1" res="-9.9000000000000000e+01" rms="0.0000000000000000e+00" purity="4.9685502052307129e-01" nType="0">
        <Node pos="l" depth="1" NCoef="0" IVar="13" Cut="9.5324784517288208e-01" cType="0" res="-9.9000000000000000e+01" rms="0.0000000000000000e+00" purity="4.9958360195159912e-01" nType="0">
          <Node pos="l" depth="2" NCoef="0" IVar="0" Cut="1.1106572265625000e+03" cType="0" res="-9.9000000000000000e+01" rms="0.0000000000000000e+00" purity="5.0346362590789795e-01" nType="0">
            <Node pos="l" depth="3" NCoef="0" IVar="-1" Cut="0.0000000000000000e+00" cType="1" res="-9.9000000000000000e+01" rms="0.0000000000000000e+00" purity="5.2203404903411865e-01" nType="1"/>
            <Node pos="r" depth="3" NCoef="0" IVar="-1" Cut="0.0000000000000000e+00" cType="1" res="-9.9000000000000000e+01" rms="0.0000000000000000e+00" purity="4.9637848138809204e-01" nType="-1"/>
          </Node>
          <Node pos="r" depth="2" NCoef="0" IVar="2" Cut="2.5445380210876465e+00" cType="1" res="-9.9000000000000000e+01" rms="0.0000000000000000e+00" purity="4.7115871310234070e-01" nType="0">
            <Node pos="l" depth="3" NCoef="0" IVar="-1" Cut="0.0000000000000000e+00" cType="1" res="-9.9000000000000000e+01" rms="0.0000000000000000e+00" purity="5.0035953521728516e-01" nType="1"/>
            <Node pos="r" depth="3" NCoef="0" IVar="-1" Cut="0.0000000000000000e+00" cType="1" res="-9.9000000000000000e+01" rms="0.0000000000000000e+00" purity="4.3707245588302612e-01" nType="-1"/>
          </Node>
        </Node>
        <Node pos="r" depth="1" NCoef="0" IVar="-1" Cut="0.0000000000000000e+00" cType="1" res="-9.9000000000000000e+01" rms="0.0000000000000000e+00" purity="4.5480284094810486e-01" nType="-1"/>
      </Node>
    </BinaryTree>
    <BinaryTree type="DecisionTree" boostWeight="2.8289113203012604e-02" itree="33">
      <Node pos="s" depth="0" NCoef="0" IVar="5" Cut="9.3897652626037598e-01" cType="1" res="-9.9000000000000000e+01" rms="0.0000000000000000e+00" purity="5.0028961896896362e-01" nType="0">
        <Node pos="l" depth="1" NCoef="0" IVar="-1" Cut="0.0000000000000000e+00" cType="1" res="-9.9000000000000000e+01" rms="0.0000000000000000e+00" purity="5.4333293437957764e-01" nType="1"/>
        <Node pos="r" depth="1" NCoef="0" IVar="14" Cut="2.9542864990234375e+02" cType="0" res="-9.9000000000000000e+01" rms="0.0000000000000000e+00" purity="4.9760338664054871e-01" nType="0">
          <Node pos="l" depth="2" NCoef="0" IVar="7" Cut="2.0457000732421875e+02" cType="1" res="-9.9000000000000000e+01" rms="0.0000000000000000e+00" purity="5.0077635049819946e-01" nType="0">
            <Node pos="l" depth="3" NCoef="0" IVar="-1" Cut="0.0000000000000000e+00" cType="1" res="-9.9000000000000000e+01" rms="0.0000000000000000e+00" purity="5.0431764125823975e-01" nType="1"/>
            <Node pos="r" depth="3" NCoef="0" IVar="-1" Cut="0.0000000000000000e+00" cType="1" res="-9.9000000000000000e+01" rms="0.0000000000000000e+00" purity="4.5711439847946167e-01" nType="-1"/>
          </Node>
          <Node pos="r" depth="2" NCoef="0" IVar="-1" Cut="0.0000000000000000e+00" cType="1" res="-9.9000000000000000e+01" rms="0.0000000000000000e+00" purity="4.5615038275718689e-01" nType="-1"/>
        </Node>
      </Node>
    </BinaryTree>
    <BinaryTree type="DecisionTree" boostWeight="3.6623508082593841e-02" itree="34">
      <Node pos="s" depth="0" NCoef="0" IVar="13" Cut="8.3569729328155518e-01" cType="0" res="-9.9000000000000000e+01" rms="0.0000000000000000e+00" purity="4.9509763717651367e-01" nType="0">
        <Node pos="l" depth="1" NCoef="0" IVar="9" Cut="6.0697174072265625e-01" cType="1" res="-9.9000000000000000e+01" rms="0.0000000000000000e+00" purity="4.9875435233116150e-01" nType="0">
          <Node pos="l" depth="2" NCoef="0" IVar="15" Cut="6.9548875093460083e-01" cType="1" res="-9.9000000000000000e+01" rms="0.0000000000000000e+00" purity="5.0197178125381470e-01" nType="0">
            <Node pos="l" depth="3" NCoef="0" IVar="-1" Cut="0.0000000000000000e+00" cType="1" res="-9.9000000000000000e+01" rms="0.0000000000000000e+00" purity="5.1945364475250244e-01" nType="1"/>
            <Node pos="r" depth="3" NCoef="0" IVar="-1" Cut="0.0000000000000000e+00" cType="1" res="-9.9000000000000000e+01" rms="0.0000000000000000e+00" purity="4.9360948801040649e-01" nType="-1"/>
          </Node>
          <Node pos="r" depth="2" NCoef="0" IVar="-1" Cut="0.0000000000000000e+00" cType="1" res="-9.9000000000000000e+01" rms="0.0000000000000000e+00" purity="4.6090590953826904e-01" nType="-1"/>
        </Node>
        <Node pos="r" depth="1" NCoef="0" IVar="-1" Cut="0.0000000000000000e+00" cType="1" res="-9.9000000000000000e+01" rms="0.0000000000000000e+00" purity="4.6481502056121826e-01" nType="-1"/>
      </Node>
    </BinaryTree>
    <BinaryTree type="DecisionTree" boostWeight="5.0870447965761220e-02" itree="35">
      <Node pos="s" depth="0" NCoef="0" IVar="5" Cut="9.3897652626037598e-01" cType="1" res="-9.9000000000000000e+01" rms="0.0000000000000000e+00" purity="4.9947530031204224e-01" nType="0">
        <Node pos="l" depth="1" NCoef="0" IVar="-1" Cut="0.0000000000000000e+00" cType="1" res="-9.9000000000000000e+01" rms="0.0000000000000000e+00" purity="5.4418253898620605e-01" nType="1"/>
        <Node pos="r" depth="1" NCoef="0" IVar="12" Cut="1.7113935947418213e+00" cType="1" res="-9.9000000000000000e+01" rms="0.0000000000000000e+00" purity="4.9668440222740173e-01" nType="0">
          <Node pos="l" depth="2" NCoef="0" IVar="9" Cut="5.9722185134887695e-01" cType="1" res="-9.9000000000000000e+01" rms="0.0000000000000000e+00" purity="5.0448638200759888e-01" nType="0">
            <Node pos="l" depth="3" NCoef="0" IVar="-1" Cut="0.0000000000000000e+00" cType="1" res="-9.9000000000000000e+01" rms="0.0000000000000000e+00" purity="5.1097774505615234e-01" nType="1"/>
            <Node pos="r" depth="3" NCoef="0" IVar="-1" Cut="0.0000000000000000e+00" cType="1" res="-9.9000000000000000e+01" rms="0.0000000000000000e+00" purity="4.6134307980537415e-01" nType="-1"/>
          </Node>
          <Node pos="r" depth="2" NCoef="0" IVar="11" Cut="9.6503758430480957e-01" cType="0" res="-9.9000000000000000e+01" rms="0.0000000000000000e+00" purity="4.8286944627761841e-01" nType="0">
            <Node pos="l" depth="3" NCoef="0" IVar="-1" Cut="0.0000000000000000e+00" cType="1" res="-9.9000000000000000e+01" rms="0.0000000000000000e+00" purity="5.2150869369506836e-01" nType="1"/>
            <Node pos="r" depth="3" NCoef="0" IVar="-1" Cut="0.0000000000000000e+00" cType="1" res="-9.9000000000000000e+01" rms="0.0000000000000000e+00" purity="4.6837300062179565e-01" nType="-1"/>
          </Node>
        </Node>
      </Node>
    </BinaryTree>
    <BinaryTree type="DecisionTree" boostWeight="5.5154589068868207e-02" itree="36">
      <Node pos="s" depth="0" NCoef="0" IVar="5" Cut="2.4420723915100098e+00" cType="1" res="-9.9000000000000000e+01" rms="0.0000000000000000e+00" purity="4.9507495760917664e-01" nType="0">
        <Node pos="l" depth="1" NCoef="0" IVar="6" Cut="-3.0653021335601807e+00" cType="1" res="-9.9000000000000000e+01" rms="0.0000000000000000e+00" purity="5.0070744752883911e-01" nType="0">
